1177 25
1 9.443056e-002 1.734574e-001 9.242502e-002 8.502569e-002 3.541206e-002 3.566281e-002 1.726146e-002 6.310549e-002 4.604598e-002 3.274375e-002 8.866901e-003 3.654838e-003 1.419532e-002 3.796451e-003 3.905043e-003 1.452140e-003 6.596273e-003 4.483833e-003 3.229093e-003 3.049548e-003 4.389744e-003 2.021712e-003 4.892262e-003 8.348549e-004 3.127474e-003 
1 9.411074e-002 1.662862e-001 9.323152e-002 7.991674e-002 4.029540e-002 4.283505e-002 3.078753e-002 6.699967e-002 5.045980e-002 1.538134e-002 3.735778e-003 5.460085e-003 1.542539e-002 6.951894e-003 5.967409e-003 6.490689e-003 4.228110e-003 4.142052e-003 6.021195e-004 2.361388e-003 8.808826e-004 1.958055e-003 1.239880e-003 3.717520e-003 4.238013e-003 
1 1.024744e-001 1.229473e-001 4.991600e-002 5.160328e-002 5.964687e-002 7.787648e-003 7.208151e-002 6.333482e-002 1.871306e-002 1.427288e-002 1.839841e-002 5.725901e-004 3.351146e-003 7.199259e-003 7.278903e-003 2.795273e-003 3.665399e-003 4.097664e-003 3.062044e-003 3.930692e-003 2.937674e-003 3.872115e-003 6.822878e-003 3.657496e-003 4.813257e-003 
1 1.041959e-001 1.535718e-001 7.918272e-002 6.957322e-002 5.265555e-002 2.427753e-002 5.341578e-002 7.525654e-002 2.960880e-002 1.279790e-002 9.054672e-003 1.208525e-002 1.169198e-002 8.962602e-003 3.888762e-003 4.710863e-003 4.197192e-003 4.314082e-003 4.328081e-003 1.851340e-003 4.148030e-004 1.775124e-003 5.191946e-003 3.188728e-003 1.328742e-003 
1 8.900839e-002 1.593226e-001 7.207792e-002 8.654577e-002 4.512352e-002 4.334687e-002 2.557387e-002 5.317283e-002 3.601395e-002 1.777730e-002 2.093038e-003 7.922061e-003 1.105054e-002 3.070944e-003 9.611154e-003 6.473821e-003 7.369508e-003 6.096111e-003 3.899854e-003 1.679854e-003 2.258391e-003 4.074164e-003 4.741478e-004 1.830645e-004 4.680498e-003 
1 5.671933e-002 1.686255e-001 2.202999e-001 5.315399e-002 8.823154e-002 3.461545e-002 2.051047e-002 1.343526e-002 7.432025e-003 5.736551e-003 1.172035e-002 4.594874e-003 9.932145e-003 1.020844e-002 5.711051e-003 7.713371e-003 2.110386e-003 2.121570e-003 2.135621e-003 1.977208e-003 1.805584e-003 3.769169e-003 3.430106e-003 2.151804e-003 1.389570e-003 
1 6.981334e-002 1.767179e-001 6.747024e-002 8.827687e-002 6.947931e-002 1.207913e-002 2.059688e-002 1.564608e-002 8.520008e-003 8.941555e-003 2.119395e-003 1.114101e-002 7.011538e-003 4.635297e-003 4.767890e-003 5.419940e-003 3.607916e-003 2.132201e-003 3.194624e-003 3.980784e-003 3.015867e-003 4.543029e-003 1.749878e-003 4.307317e-003 8.170036e-004 
1 7.646286e-002 1.380196e-001 1.012717e-001 1.158239e-001 4.212645e-002 2.820171e-002 2.125184e-002 2.519493e-002 1.653626e-002 4.033248e-003 8.794235e-003 1.003863e-002 7.637854e-003 5.929948e-003 2.946540e-003 2.999710e-004 1.290413e-003 3.346497e-003 1.772300e-003 3.614699e-003 2.118409e-003 1.313505e-003 1.407127e-003 2.832790e-003 2.564472e-003 
1 2.614844e-002 1.471155e-001 3.474000e-002 1.041267e-001 5.198723e-002 1.935866e-002 3.357148e-002 9.006193e-003 1.037520e-002 8.008530e-003 2.316639e-003 4.558763e-003 7.427087e-003 1.202364e-002 4.085493e-003 5.133314e-003 1.628700e-003 4.812129e-003 4.498314e-003 1.789093e-003 1.276042e-003 2.343674e-003 2.929474e-003 2.804040e-003 2.211745e-003 
1 4.566409e-002 1.785957e-001 3.546535e-002 5.520446e-002 7.425097e-002 9.543660e-003 3.397111e-002 1.129443e-002 1.149568e-002 4.663897e-003 4.565098e-003 6.085114e-003 4.434854e-003 5.144931e-003 3.600440e-003 9.031303e-005 7.293031e-003 3.345298e-003 3.103514e-003 2.449903e-003 2.020994e-003 1.784210e-003 2.179158e-003 1.654088e-003 1.081508e-003 
1 8.469060e-002 1.369281e-001 9.446988e-002 1.281422e-001 7.039597e-002 1.645225e-002 1.365761e-002 1.210519e-002 1.192067e-002 6.923391e-003 4.401734e-003 5.527871e-003 8.055751e-003 1.188684e-002 4.307894e-003 2.668832e-003 4.795530e-003 2.007165e-003 3.965950e-003 6.473048e-004 4.892930e-003 4.357847e-003 7.198110e-004 1.384868e-003 1.062759e-003 
1 1.346981e-001 9.569457e-002 5.349766e-002 3.247732e-002 1.274870e-003 1.215090e-001 9.248680e-002 1.350239e-002 7.671664e-003 1.748240e-002 5.202795e-003 6.148861e-003 3.964701e-003 6.938949e-003 5.097439e-003 8.498431e-003 5.625108e-003 2.054554e-003 1.276696e-002 4.308493e-003 3.648063e-003 3.540423e-003 7.341216e-004 4.847000e-003 2.544688e-003 
1 1.368114e-001 1.065853e-001 5.903303e-002 3.552860e-002 1.006622e-002 1.034833e-001 1.086691e-001 1.347398e-002 8.706483e-003 1.356757e-002 9.412506e-003 8.653792e-003 1.189656e-002 1.187561e-002 7.581512e-003 5.511913e-003 2.575887e-003 3.448912e-003 5.557256e-003 1.246265e-002 4.186125e-003 3.609104e-003 1.472759e-003 1.985114e-003 2.433511e-003 
1 1.053562e-001 1.010026e-001 6.025877e-002 3.191738e-002 3.956463e-002 4.846793e-002 1.059776e-001 4.155641e-002 1.835437e-002 1.093477e-002 2.112313e-002 1.355272e-002 2.885535e-003 9.104477e-003 2.779128e-003 2.596712e-003 3.492732e-003 6.180193e-003 7.196208e-003 1.536549e-003 1.047643e-002 5.251624e-003 7.364962e-003 2.979564e-003 2.857186e-003 
1 7.386248e-002 1.101895e-001 5.931863e-002 2.938382e-002 2.742788e-002 8.595099e-002 2.820269e-002 4.755293e-002 2.290005e-002 4.070449e-002 7.896301e-003 4.172588e-003 4.090383e-003 4.839138e-003 6.029983e-003 7.394529e-003 7.044376e-003 3.079636e-003 6.351516e-003 3.916615e-003 2.375375e-003 7.621059e-004 1.547763e-003 4.763416e-003 3.237034e-003 
1 1.253607e-001 1.020239e-001 5.194415e-002 3.058284e-002 3.373397e-002 1.003606e-001 9.142730e-002 3.316925e-002 5.517899e-003 9.449734e-003 1.034617e-002 1.608409e-002 8.537674e-003 2.022566e-003 6.362370e-003 1.913523e-003 7.092595e-003 3.915583e-003 5.283857e-003 7.407705e-003 7.487972e-003 3.214824e-003 2.478184e-003 9.503928e-004 3.459741e-003 
1 1.279211e-001 8.932432e-002 2.782613e-002 5.401411e-002 1.194461e-001 6.405635e-002 2.796792e-002 4.598987e-002 1.378193e-002 2.170565e-003 6.198906e-003 1.929932e-003 7.840036e-003 1.190681e-003 9.482017e-003 1.749715e-002 6.101324e-003 1.603165e-003 4.709565e-003 3.399055e-003 4.241126e-003 3.447954e-003 3.245890e-003 1.741585e-003 3.932611e-003 
1 1.339477e-001 7.324362e-002 2.473982e-002 2.578414e-002 3.564123e-002 1.025294e-001 1.118921e-001 1.802680e-002 1.109120e-002 1.919805e-002 1.265128e-002 1.097082e-002 7.081073e-003 4.027340e-003 7.248963e-003 3.543872e-003 2.908473e-003 9.707946e-003 2.241902e-003 1.216422e-002 6.174522e-003 5.014356e-003 6.717651e-003 4.036349e-003 4.319121e-003 
1 1.119464e-001 1.269647e-001 8.398739e-002 4.266313e-002 1.878564e-002 2.591416e-002 1.284430e-001 4.754508e-002 1.448798e-002 1.871017e-002 2.287654e-002 7.814159e-003 1.093833e-003 8.350408e-003 1.609603e-003 3.169015e-003 1.780333e-003 9.942767e-004 6.683859e-003 5.396545e-003 5.128713e-003 8.936674e-003 5.100041e-003 2.345028e-003 1.220943e-003 
1 6.385098e-002 1.459967e-001 8.218819e-002 4.079344e-002 9.686252e-002 5.116133e-002 4.318651e-002 1.621039e-002 1.829612e-002 8.334016e-003 1.996446e-002 2.620197e-003 8.243518e-003 6.924953e-003 3.727930e-003 2.214188e-003 7.273063e-003 2.618885e-003 4.361595e-003 3.000691e-003 2.690638e-003 1.299978e-003 2.909795e-003 1.542108e-003 7.727362e-004 
1 7.132838e-002 1.371787e-001 7.165334e-002 5.648070e-002 9.002863e-002 4.687350e-002 3.670164e-002 1.055751e-002 2.564966e-002 6.183132e-003 8.900443e-003 1.054631e-002 8.102270e-003 3.711027e-003 1.878501e-003 4.776479e-003 1.161405e-002 4.556315e-003 5.538038e-003 1.295728e-003 2.687413e-003 2.256432e-003 1.439043e-003 3.164814e-003 5.170165e-003 
1 1.155718e-001 9.975804e-002 7.289901e-002 2.563386e-002 6.811356e-003 7.053838e-002 1.377541e-001 1.702992e-002 1.028777e-002 3.542674e-003 1.193280e-002 1.975895e-002 7.630674e-003 3.091964e-003 9.917540e-004 1.717812e-003 4.458982e-003 3.728498e-004 5.083137e-003 1.227998e-002 3.731353e-003 2.282576e-003 1.171705e-003 2.485998e-003 4.322281e-003 
1 1.085370e-001 1.060048e-001 5.834670e-002 3.112936e-002 6.028686e-002 5.696337e-002 8.156222e-002 1.237743e-002 1.947851e-002 1.857217e-002 1.820178e-002 1.074936e-002 1.402923e-002 7.558593e-003 6.275375e-003 2.898129e-003 5.762377e-003 7.266032e-003 5.051809e-003 3.209554e-003 3.683908e-003 7.041097e-003 2.410522e-003 2.323244e-003 1.875581e-003 
1 7.131681e-002 4.726871e-002 1.063258e-001 8.223688e-002 2.467173e-002 1.607617e-002 1.196966e-002 2.251738e-002 8.107353e-003 1.862080e-002 1.631412e-002 6.808990e-003 1.348510e-002 1.276256e-002 8.976294e-003 4.386541e-003 7.316267e-003 2.508806e-003 4.066008e-003 1.488152e-003 4.912453e-003 2.836678e-003 2.335662e-003 1.465548e-003 2.281476e-003 
1 8.512101e-002 5.970759e-002 3.637615e-002 7.933943e-002 4.131086e-002 9.671855e-002 4.420389e-002 2.896202e-002 2.368105e-002 2.600460e-002 1.356900e-002 1.736591e-002 8.992214e-003 6.444758e-003 8.814717e-003 3.819760e-003 1.381892e-002 4.783397e-003 4.827001e-003 3.917099e-003 1.509915e-003 1.908269e-003 4.002108e-003 3.314657e-003 4.306842e-003 
1 1.116892e-002 1.450170e-001 8.838155e-002 9.653277e-002 7.350137e-002 1.650191e-002 4.318569e-002 3.792856e-002 1.503718e-002 1.953307e-002 1.042946e-002 1.372384e-002 1.309695e-002 7.783273e-003 1.229904e-002 1.024713e-003 8.208465e-003 6.423549e-003 4.101125e-003 6.541315e-003 6.136568e-003 2.491495e-003 5.623428e-003 2.868452e-003 3.090130e-003 
1 1.565481e-002 1.932941e-001 9.115318e-002 3.042346e-002 4.675226e-002 2.895669e-002 1.209507e-002 1.552322e-002 1.673337e-002 1.407745e-002 1.040765e-002 1.563788e-003 7.348804e-003 1.031150e-003 5.268024e-003 9.996437e-003 2.659254e-003 5.669250e-003 1.899899e-003 1.158406e-003 1.262640e-003 3.521634e-003 2.567020e-003 1.229501e-003 3.727776e-003 
1 9.048140e-002 8.630225e-002 1.251800e-001 4.968951e-002 1.992229e-002 2.045028e-002 8.041065e-003 2.056937e-002 1.078976e-002 2.887229e-002 3.114708e-003 7.990826e-003 1.187694e-002 6.960298e-003 1.124136e-002 1.097862e-002 5.849372e-003 6.897105e-003 3.338860e-003 2.855737e-003 7.320152e-003 2.351272e-003 3.165269e-003 2.349324e-003 1.106609e-003 
1 2.474019e-002 7.428043e-002 9.562781e-002 5.910624e-002 4.073810e-002 1.842224e-002 1.838140e-002 1.883774e-002 1.477141e-002 1.543401e-002 1.362314e-002 8.934401e-003 1.139567e-002 8.980292e-003 5.881658e-003 1.019212e-003 2.206254e-003 7.215051e-003 4.168672e-003 1.370185e-003 2.954428e-003 2.277888e-003 5.993327e-003 3.336166e-003 4.196056e-004 
1 8.126938e-002 5.552446e-002 1.295383e-001 5.412350e-002 3.943242e-002 2.805643e-002 2.527192e-002 1.411220e-002 2.077402e-002 2.511127e-003 6.349956e-003 1.010971e-002 1.244803e-002 1.666200e-002 3.711076e-003 3.567429e-003 7.225256e-003 1.931744e-003 5.525611e-003 2.175821e-003 5.194637e-003 2.537664e-003 1.569792e-003 5.694460e-003 7.380992e-004 
1 7.675345e-002 3.442187e-002 1.586991e-001 5.990166e-002 1.381791e-002 5.842338e-003 1.613771e-002 1.593644e-002 4.982372e-003 7.045175e-003 4.523706e-003 1.787680e-003 7.653530e-003 3.964373e-003 9.894954e-003 5.827471e-003 3.624144e-003 2.175897e-003 8.667955e-004 4.365338e-003 3.355018e-003 1.546290e-003 1.553928e-003 2.647077e-003 1.719473e-003 
1 9.461646e-003 6.201083e-002 1.174047e-001 6.295007e-002 5.062853e-002 9.722184e-003 1.809933e-002 2.349715e-002 1.100641e-002 1.302436e-002 6.779617e-003 7.121571e-003 1.103605e-002 1.316453e-002 2.525454e-003 3.121471e-003 6.556713e-003 1.388900e-003 2.844043e-003 3.442623e-003 4.908026e-003 3.866743e-004 2.071034e-003 1.634296e-003 1.182678e-003 
1 4.403562e-002 1.415930e-001 6.479920e-002 6.605327e-002 1.480319e-002 5.995908e-002 1.537475e-002 1.267743e-002 9.131940e-003 1.787893e-002 5.670457e-003 5.866535e-003 8.001753e-003 5.852128e-003 5.141640e-003 1.119037e-002 8.143238e-003 1.167852e-002 5.476389e-003 6.581637e-003 3.602534e-003 4.931621e-003 2.090641e-003 1.928339e-003 2.621972e-003 
1 4.342784e-002 1.623155e-001 5.132505e-002 6.507731e-002 4.493719e-002 2.625802e-002 1.440476e-002 1.948706e-002 2.487789e-002 3.499753e-003 7.209410e-003 1.214421e-002 9.346966e-003 7.565750e-003 9.253287e-003 1.021981e-002 1.497685e-003 9.563099e-004 4.140155e-003 2.295200e-003 3.381314e-003 2.462907e-003 5.365191e-003 3.179045e-003 1.194578e-003 
1 2.217790e-002 1.133062e-001 7.584778e-002 7.945084e-002 3.188313e-002 2.795305e-002 2.872382e-002 2.630841e-002 2.370528e-002 1.561817e-002 5.916461e-003 7.574426e-003 2.532760e-003 3.445318e-003 5.763553e-003 4.216195e-003 3.710990e-003 6.192508e-003 4.246865e-003 4.537127e-003 7.260481e-004 5.178878e-003 1.437893e-003 3.249855e-003 3.244627e-003 
1 3.604702e-002 8.446957e-002 8.487859e-002 1.079944e-001 4.511335e-002 8.445603e-003 2.144892e-002 4.135321e-003 1.804967e-002 3.423611e-002 2.290034e-002 2.583327e-002 1.219760e-003 2.585329e-003 3.942234e-003 5.455375e-003 5.304520e-003 2.884450e-003 4.477989e-003 8.535700e-003 2.574692e-003 8.651979e-004 2.193312e-003 3.495771e-003 6.212582e-004 
1 7.855031e-002 1.344773e-001 2.849052e-002 7.583314e-002 4.316127e-002 8.201724e-002 4.465964e-002 2.830066e-002 1.708260e-002 4.747116e-003 1.100363e-002 1.507548e-002 8.030927e-003 1.524912e-003 2.460209e-003 2.362285e-003 5.250396e-003 5.934043e-003 3.298035e-003 7.407973e-003 6.338868e-003 5.552698e-003 4.853445e-003 3.448364e-003 3.320502e-003 
1 3.858861e-002 1.303556e-001 8.352759e-002 5.920481e-002 6.456519e-002 1.244847e-002 6.057667e-003 6.913111e-003 1.754353e-002 1.147013e-002 1.196026e-002 1.062315e-002 1.041870e-002 6.789641e-003 7.981777e-003 8.668551e-003 2.846814e-003 1.305628e-003 1.307024e-003 2.427104e-003 1.659564e-003 2.164012e-003 1.812969e-003 3.154478e-003 1.863701e-003 
1 7.504025e-002 1.045486e-001 6.631558e-002 1.756172e-002 6.349399e-002 9.072327e-002 4.659500e-002 2.479795e-002 6.918622e-003 1.818343e-002 1.538705e-002 5.616744e-003 1.453327e-002 2.556112e-003 2.395707e-003 5.416493e-003 6.803899e-004 7.764639e-003 7.477565e-003 3.668384e-003 3.840555e-003 8.023601e-003 3.088837e-003 4.265177e-003 3.522722e-003 
1 7.305061e-003 1.464126e-001 9.639085e-004 3.054189e-002 5.282000e-002 1.048288e-002 1.779686e-002 1.187888e-002 1.572660e-002 7.963705e-003 1.319059e-003 5.140199e-003 6.572665e-003 3.408789e-003 2.077048e-003 1.076791e-002 4.623439e-003 5.046254e-003 5.555858e-004 3.305461e-003 3.318481e-003 2.399278e-003 3.273095e-003 3.100355e-003 2.107781e-003 
1 1.394157e-001 1.358806e-001 7.516919e-002 1.746724e-002 4.188550e-002 2.122193e-002 1.145728e-001 3.645218e-002 1.429929e-002 1.942623e-002 1.355912e-002 4.570187e-003 5.102532e-003 7.954527e-003 9.061811e-003 2.877366e-003 1.576294e-003 5.448577e-003 6.234643e-003 3.435100e-003 4.282745e-003 9.712024e-003 4.034450e-003 1.650107e-003 2.849166e-003 
1 4.654225e-002 1.418809e-001 6.027361e-002 9.702959e-002 4.200564e-002 3.927490e-002 1.941343e-002 1.868700e-002 5.748784e-003 9.936470e-003 7.794976e-003 5.373955e-003 5.264736e-003 2.394944e-003 2.937132e-003 7.193450e-003 1.702105e-003 6.622807e-003 1.811535e-003 2.693347e-003 1.775375e-003 1.392230e-003 8.119601e-004 1.203847e-003 5.036010e-004 
1 5.409321e-002 1.377927e-001 4.163189e-002 4.810212e-002 6.337339e-002 2.005502e-002 2.696073e-002 3.307766e-003 1.447612e-002 8.099374e-003 8.606741e-003 3.743374e-003 1.977306e-003 2.923475e-003 2.228449e-003 2.430073e-003 5.524054e-003 4.585857e-003 3.149403e-003 3.970113e-003 3.590479e-003 1.872722e-003 2.489880e-003 3.226111e-004 2.413525e-003 
1 5.242800e-002 8.987636e-002 7.247500e-002 8.916678e-002 1.623155e-002 2.975678e-002 2.942927e-003 1.091284e-003 4.352320e-003 1.882287e-002 1.511937e-002 8.884192e-003 7.083595e-003 3.331337e-003 1.666128e-003 1.861022e-003 5.619591e-003 3.521749e-003 6.809528e-004 4.389973e-003 4.012840e-003 3.017654e-003 2.504334e-003 3.526362e-003 2.422796e-003 
1 1.382105e-002 2.131806e-001 7.174379e-002 7.177811e-002 4.302044e-002 1.727474e-002 3.980723e-002 6.123073e-003 1.929416e-002 9.709427e-003 5.436753e-003 8.948823e-003 1.104184e-002 6.409019e-003 6.587179e-003 7.849883e-003 4.360782e-003 3.847604e-003 2.699709e-003 3.016658e-003 3.249747e-003 1.969421e-003 4.960971e-003 2.289974e-003 1.199273e-003 
1 2.590681e-002 1.324012e-001 4.204846e-002 7.806716e-002 5.637247e-002 2.383987e-002 6.201201e-002 2.051714e-002 7.331251e-003 1.915922e-002 9.430076e-003 1.230147e-002 1.994927e-002 1.050182e-002 8.097513e-003 7.966869e-003 2.560994e-003 1.008148e-002 5.540458e-003 1.370663e-003 4.430320e-003 7.056499e-004 5.891209e-003 4.457852e-003 8.134118e-004 
1 4.824947e-002 1.233419e-001 6.460792e-002 1.973194e-002 1.044701e-001 2.849669e-002 9.525733e-003 3.169063e-002 1.163406e-002 1.777354e-002 9.529278e-003 1.800513e-002 9.624909e-003 3.680767e-003 5.111489e-003 8.846119e-004 9.793571e-004 8.265319e-003 2.128054e-003 5.598117e-003 3.736163e-003 1.359351e-003 6.944940e-004 2.461177e-003 3.244165e-003 
1 9.292698e-002 4.445308e-002 2.352271e-001 3.494596e-002 4.129802e-002 2.970098e-002 3.083551e-002 9.732990e-003 5.325175e-003 1.150928e-002 1.530823e-002 2.963920e-003 7.803823e-003 1.825833e-002 1.058002e-002 8.306906e-003 6.725651e-003 4.978603e-003 1.556450e-003 6.726468e-003 1.739274e-003 1.330712e-003 3.680681e-003 1.763531e-003 1.838175e-003 
1 1.822825e-001 1.112255e-001 6.068528e-002 1.043447e-001 9.862639e-003 3.898890e-002 1.214392e-002 2.333849e-002 2.124098e-002 1.508799e-002 1.289241e-002 4.727267e-003 1.422654e-002 6.599389e-003 3.688254e-003 1.092258e-003 3.395665e-003 4.274951e-003 4.564080e-003 3.145502e-003 3.451657e-003 5.434237e-003 5.671215e-003 5.361875e-003 2.734096e-003 
1 9.878292e-002 1.214074e-001 5.858259e-002 3.015210e-002 2.862845e-003 1.105966e-001 2.316416e-002 4.159199e-002 3.108185e-002 3.882162e-002 1.396109e-002 1.582629e-002 1.000703e-002 5.644188e-003 4.535286e-003 1.505211e-002 5.149331e-003 8.233144e-003 1.311602e-003 3.975633e-003 7.576214e-003 2.286924e-003 4.106795e-003 5.235327e-003 1.647244e-003 
1 7.710159e-002 1.270938e-001 2.735345e-002 6.263826e-002 7.520583e-002 5.804480e-002 2.749894e-002 2.171541e-002 4.855264e-002 2.362107e-002 1.664044e-002 6.434527e-003 2.548447e-003 1.139695e-002 4.775862e-003 6.553587e-003 1.129950e-002 4.043481e-003 5.338978e-003 3.451259e-003 3.627784e-003 6.299688e-003 2.873747e-003 3.654797e-003 4.326621e-003 
1 7.110681e-002 1.264190e-001 3.639437e-002 5.094070e-002 3.919701e-002 7.554696e-002 3.586865e-002 4.529539e-002 4.207463e-002 2.200533e-002 2.971664e-002 1.702212e-002 9.912762e-003 1.089340e-002 7.424184e-003 3.188316e-003 4.830648e-003 7.615766e-003 4.153637e-003 1.538753e-003 5.911184e-003 7.424222e-003 6.155521e-004 2.067263e-003 5.123142e-003 
1 5.081999e-002 1.007437e-001 4.034057e-002 7.929855e-002 7.027429e-002 8.394186e-002 5.952508e-002 3.529982e-002 3.077840e-002 9.718884e-003 1.293891e-002 6.510127e-003 8.500655e-003 1.462174e-002 4.337557e-003 6.768168e-003 6.103513e-003 2.384221e-003 6.849364e-003 5.934921e-003 3.468120e-003 1.130761e-003 2.485127e-003 4.045431e-003 1.513715e-003 
1 6.165597e-002 2.242521e-001 1.226232e-001 7.855451e-002 3.197199e-002 3.591750e-002 3.326929e-002 4.034133e-002 4.438826e-002 3.995515e-002 2.745657e-002 2.208045e-002 2.791442e-002 1.510983e-002 1.007686e-002 9.269206e-003 1.559844e-002 1.033777e-002 1.499217e-002 6.254656e-003 1.030071e-002 6.152809e-003 7.304288e-004 7.870418e-003 3.738715e-003 
1 2.648435e-002 1.167138e-001 4.715969e-002 4.114549e-002 5.158224e-002 3.107027e-002 4.447214e-002 8.249587e-003 1.640061e-002 8.690884e-003 1.658512e-002 7.874034e-003 1.473168e-002 5.951945e-003 3.880122e-003 9.654975e-003 4.190809e-003 7.560555e-003 8.094681e-003 3.375203e-003 4.842885e-003 9.347753e-004 1.657486e-003 2.253093e-003 2.887111e-003 
1 2.742021e-002 1.204232e-001 6.360316e-002 6.894613e-002 1.180178e-001 5.079597e-002 3.177079e-002 5.354896e-003 2.373665e-002 4.412071e-002 2.564414e-002 1.821561e-002 1.502906e-002 9.723443e-003 1.186210e-002 4.379587e-003 5.855841e-003 1.470663e-003 3.866407e-003 7.694300e-003 5.566746e-003 1.299174e-003 5.627354e-003 6.181567e-004 5.748201e-003 
1 4.187363e-002 1.582672e-001 6.331504e-002 1.974091e-002 8.297539e-002 2.327112e-002 2.315201e-002 2.734153e-002 5.147312e-003 2.094276e-002 1.971243e-002 3.770093e-003 1.253263e-002 4.229011e-003 4.476117e-003 6.484752e-003 1.632853e-003 1.195381e-002 5.613246e-003 2.370549e-003 4.251045e-003 9.836728e-004 2.049846e-003 1.344272e-003 3.097324e-003 
1 8.742072e-002 8.281112e-002 4.719128e-002 6.076350e-002 1.100538e-001 4.198009e-002 3.647078e-002 9.498872e-003 2.217605e-002 9.398796e-003 9.064195e-003 1.390287e-002 1.092283e-002 8.613179e-003 1.018215e-002 9.657740e-003 3.601351e-003 5.667958e-003 5.112032e-003 1.701028e-003 1.418512e-003 6.213964e-003 3.218476e-003 9.151557e-004 4.807363e-003 
1 1.147407e-001 8.829876e-002 8.058015e-003 5.223907e-002 1.888889e-002 8.521792e-002 2.069091e-002 4.875536e-002 1.997471e-003 1.214309e-002 8.811324e-003 1.029222e-002 6.328339e-003 4.740911e-003 8.553426e-003 5.398626e-003 6.975989e-003 9.668129e-004 2.280408e-003 1.540046e-003 5.126147e-003 1.498127e-003 8.242064e-004 1.413511e-003 4.042184e-003 
1 1.122867e-001 1.040916e-001 4.550876e-002 6.531742e-002 4.202752e-002 7.162834e-002 2.652811e-002 4.135896e-002 7.413152e-003 1.543188e-002 1.476224e-002 6.261722e-003 5.480766e-003 3.711710e-003 5.996046e-003 4.464181e-003 6.119306e-003 3.843012e-003 4.434637e-003 1.505561e-003 2.455074e-003 3.371157e-003 1.048971e-003 3.455811e-003 3.175417e-003 
1 1.269908e-001 1.203576e-001 8.855995e-002 4.863445e-002 5.527626e-002 8.491141e-002 4.182711e-002 2.912444e-002 5.635344e-003 1.733905e-002 2.725124e-002 2.805552e-003 9.448248e-003 8.124577e-003 5.605827e-003 5.597584e-003 1.011537e-002 4.749713e-003 3.674108e-003 2.780823e-003 6.421259e-003 3.563987e-003 3.671768e-003 1.397302e-003 4.191453e-003 
1 1.772472e-002 1.318181e-001 4.530610e-002 3.713672e-002 1.050058e-001 4.890274e-002 1.256581e-002 1.389235e-002 2.863598e-002 1.561428e-002 1.630236e-002 9.148192e-003 1.109402e-002 4.374168e-003 6.886157e-003 3.959465e-003 8.617407e-003 5.101506e-003 4.228885e-003 1.910817e-003 2.596025e-003 7.445172e-003 2.471939e-003 4.766155e-003 2.745590e-003 
1 8.111646e-002 1.397347e-001 4.614885e-002 9.747473e-002 4.465956e-002 1.663921e-002 4.720769e-002 1.936464e-002 2.480361e-002 1.850103e-002 1.206277e-002 7.075442e-003 1.238353e-002 3.791340e-003 7.513373e-003 7.495829e-003 7.662835e-003 4.938477e-003 4.873074e-003 1.862876e-003 5.588299e-003 2.695964e-003 2.845632e-003 2.431745e-003 6.088645e-003 
1 1.041075e-001 1.372100e-001 6.082106e-002 7.832587e-002 1.845047e-002 7.469157e-002 6.663431e-002 2.241961e-002 1.507567e-002 1.815281e-002 2.119426e-002 1.518272e-003 9.886907e-003 4.741284e-003 4.400370e-004 2.014033e-003 3.173938e-003 5.764671e-003 7.021054e-003 4.702122e-003 5.977729e-003 2.467316e-003 2.661556e-003 2.561606e-003 2.753861e-003 
1 8.584996e-002 1.518668e-001 6.273391e-002 5.171067e-002 2.085404e-002 7.215781e-002 3.439089e-002 3.712511e-002 1.331368e-002 3.330934e-002 9.433996e-003 3.567020e-003 1.184716e-002 1.377462e-002 5.029905e-003 6.873620e-003 5.435956e-003 4.215901e-003 1.343497e-003 2.213904e-003 3.318522e-003 1.286538e-003 8.563391e-003 2.163141e-003 2.087814e-003 
1 7.960060e-002 1.519882e-001 7.776041e-002 4.110141e-002 5.017889e-002 7.264663e-002 1.596187e-002 3.059469e-002 1.856566e-002 2.541013e-002 1.074459e-002 2.740384e-003 9.565671e-003 7.980883e-003 1.020776e-002 5.998808e-003 5.605174e-003 7.302191e-003 3.718543e-003 1.687883e-003 1.670229e-003 6.776331e-003 2.582347e-003 2.958156e-003 2.625000e-003 
1 4.787653e-002 1.694224e-001 8.096882e-002 4.205515e-002 6.122112e-002 4.012542e-002 7.149988e-003 2.090986e-002 1.989828e-002 7.839526e-003 4.154846e-003 1.136117e-002 9.487311e-003 1.374109e-002 6.549561e-003 7.729455e-003 4.090413e-003 3.520390e-003 2.267192e-003 4.438586e-003 3.942604e-003 1.069718e-003 3.167173e-004 5.313547e-003 5.998306e-004 
1 4.721592e-002 1.657506e-001 7.266068e-002 3.592056e-002 5.572800e-002 4.823515e-002 1.206353e-002 2.408391e-002 1.265291e-002 1.433579e-002 1.056606e-002 1.932470e-002 7.814458e-003 1.306892e-002 6.719884e-003 5.671008e-003 6.922450e-003 2.602728e-003 3.916254e-003 1.623930e-003 6.447588e-003 5.588049e-004 3.118893e-003 2.128010e-003 1.261207e-003 
1 2.394571e-002 1.662862e-001 8.616285e-002 3.090060e-002 6.544543e-002 2.298592e-002 6.043197e-003 2.714722e-002 9.406739e-003 4.578965e-003 8.218600e-003 1.230644e-002 8.849522e-003 6.579910e-003 8.748138e-003 6.916180e-003 8.059288e-003 5.114646e-003 5.677739e-004 5.208580e-003 4.907150e-003 9.953526e-004 1.712617e-003 6.876706e-004 7.822448e-004 
1 2.497785e-002 1.620853e-001 7.777444e-002 3.540528e-002 6.744155e-002 1.914702e-002 1.010393e-002 1.630765e-002 2.053343e-002 8.324046e-003 7.070259e-003 9.497291e-003 6.696468e-003 3.867149e-003 5.596283e-003 3.728734e-003 5.692660e-003 1.303081e-003 5.830053e-003 4.589683e-003 1.826241e-003 2.979828e-003 3.448989e-003 1.884881e-003 1.073183e-003 
1 2.036550e-002 1.560593e-001 1.025792e-001 4.899480e-002 6.171539e-002 3.459709e-003 2.130155e-002 2.113248e-002 7.600779e-003 6.084560e-003 5.806926e-003 2.463887e-003 1.699516e-003 5.145442e-003 1.908526e-003 7.731843e-003 5.990347e-003 4.222950e-003 7.312202e-003 2.726648e-003 4.200926e-003 2.579945e-003 3.086899e-003 1.394942e-003 3.551096e-004 
1 2.977017e-002 1.390893e-001 7.536541e-002 3.500230e-002 8.764281e-002 9.931087e-003 1.420820e-002 3.124834e-002 1.219361e-002 1.640969e-002 8.551660e-003 1.491657e-002 7.270466e-003 4.529454e-003 6.659811e-003 3.688240e-003 7.535500e-003 5.841635e-003 6.955932e-004 2.570495e-003 1.580136e-003 2.789726e-003 3.311555e-003 5.590539e-004 2.823605e-003 
1 3.642229e-002 1.417728e-001 7.708131e-002 5.747038e-002 7.517862e-002 1.392912e-002 1.140014e-002 1.936200e-002 2.201471e-002 1.543097e-002 7.976508e-003 1.000585e-002 6.381565e-003 6.345789e-003 1.784897e-003 5.728998e-003 4.023687e-003 2.783751e-003 5.253438e-003 7.250244e-004 4.312491e-003 3.564244e-003 2.530225e-003 2.397489e-004 2.870499e-003 
1 4.220008e-002 1.358221e-001 7.804090e-002 6.431728e-002 4.672852e-002 3.366195e-002 6.751795e-003 2.507265e-003 2.322074e-002 1.409093e-002 1.279477e-002 1.843768e-002 8.906999e-003 7.068734e-003 3.651924e-003 5.272234e-003 9.395232e-004 2.871304e-003 3.402917e-003 3.489836e-003 4.493771e-003 3.690270e-003 7.849065e-004 3.389640e-003 3.718485e-003 
1 2.589221e-002 1.274826e-001 6.547044e-002 5.207711e-002 4.255981e-002 3.824201e-002 2.055296e-002 1.440248e-002 2.249556e-002 1.089456e-002 7.185964e-003 1.399506e-002 5.902074e-003 4.629275e-003 2.512424e-003 5.556598e-003 7.135227e-003 4.449625e-004 3.808864e-003 2.550041e-003 2.382693e-003 2.937671e-003 2.042870e-004 1.350165e-003 3.617365e-003 
1 2.088800e-002 1.222684e-001 8.855347e-002 4.871776e-002 5.280264e-002 2.418628e-002 8.932198e-003 1.614604e-002 1.949051e-002 9.436663e-003 3.344400e-003 1.167291e-002 9.773117e-003 7.559846e-003 4.653738e-003 1.906845e-003 2.023053e-003 2.152527e-003 6.219782e-004 3.154553e-003 2.117005e-003 8.350554e-004 7.011705e-004 1.625093e-003 1.249256e-003 
1 4.326024e-003 1.317853e-001 7.687063e-002 2.115738e-002 6.295558e-002 2.518493e-002 4.587817e-003 2.689830e-002 1.490045e-002 2.886757e-003 1.122779e-002 4.213597e-003 4.054387e-003 3.415374e-003 5.042528e-003 3.511012e-003 2.656426e-003 3.817102e-003 1.615897e-003 3.706969e-003 1.394578e-003 1.832953e-003 1.041573e-003 6.493701e-004 5.333049e-004 
1 1.773551e-002 1.291200e-001 7.036012e-002 1.264456e-002 6.721587e-002 2.512306e-002 1.088418e-002 3.076741e-002 8.880803e-003 5.380226e-003 1.306866e-002 2.182870e-003 3.120503e-003 4.236174e-003 6.631420e-003 1.293532e-003 1.605026e-003 2.272172e-003 2.308209e-003 3.752909e-004 2.110088e-003 9.794185e-004 2.209606e-003 1.796456e-003 1.449551e-003 
1 8.308124e-003 1.341659e-001 7.226252e-002 3.233272e-002 5.245303e-002 3.153358e-002 5.111221e-003 1.808904e-002 2.406330e-002 3.706915e-003 1.166984e-002 1.236460e-002 7.930413e-003 5.589116e-003 4.921531e-003 5.446646e-003 3.434944e-003 4.270559e-003 2.276310e-003 1.026713e-003 3.421006e-003 2.796114e-003 1.020118e-003 3.513077e-004 2.106871e-003 
1 4.225079e-002 1.268631e-001 4.600314e-002 6.532517e-002 2.344699e-002 5.423183e-002 9.203126e-004 1.143781e-002 3.934691e-002 1.648531e-002 1.668377e-002 1.127301e-002 4.362402e-003 1.982414e-003 5.554533e-003 2.631237e-003 1.981211e-003 7.933246e-003 6.236995e-003 5.906645e-003 2.222820e-003 3.043242e-003 3.903019e-003 2.030646e-003 3.488495e-004 
1 3.784924e-002 1.282117e-001 4.369676e-002 6.522674e-002 3.446196e-002 4.661486e-002 1.096063e-002 2.002449e-002 4.029601e-002 7.416487e-003 1.178061e-002 7.834683e-003 8.054864e-003 5.920107e-003 7.486674e-004 3.574932e-003 1.515574e-003 3.175165e-003 3.334053e-003 2.092463e-003 1.742684e-003 1.216199e-003 1.902668e-003 8.345421e-004 1.418932e-003 
1 6.017416e-002 1.116475e-001 4.827618e-002 6.367737e-002 1.942918e-002 6.869221e-002 1.914130e-002 3.413178e-002 3.449528e-002 4.140480e-003 5.147146e-003 5.191092e-003 5.112316e-003 3.172826e-003 2.939439e-003 6.311893e-003 2.281189e-003 5.453163e-003 2.482552e-003 7.039918e-003 3.675875e-004 3.487553e-003 2.278653e-003 2.475117e-003 2.090998e-003 
1 5.397383e-002 1.245938e-001 3.689327e-002 7.459010e-002 1.257701e-002 5.296368e-002 1.502208e-002 3.310458e-002 3.728716e-002 6.774043e-003 1.478902e-002 3.191951e-003 6.229838e-003 4.607105e-003 1.591991e-003 3.325794e-003 4.408168e-003 2.657837e-003 3.601130e-003 6.244319e-004 3.549887e-003 4.386254e-003 2.475108e-003 1.145669e-003 3.008074e-003 
1 3.583409e-002 1.348805e-001 3.033606e-002 7.385727e-002 3.378062e-002 4.533825e-002 3.087967e-002 2.068746e-002 2.021293e-002 1.408836e-002 9.078666e-003 2.465626e-003 2.109158e-003 3.617004e-003 6.250657e-003 5.402358e-003 4.092493e-003 4.248254e-003 1.075036e-003 5.721708e-003 4.826626e-004 1.886550e-003 3.120696e-003 3.436484e-003 1.052939e-003 
1 4.045203e-002 1.417196e-001 2.434425e-002 8.180267e-002 2.389447e-002 4.189990e-002 2.840970e-002 1.863600e-002 1.610310e-002 1.524829e-002 6.883982e-003 3.571828e-003 5.853062e-003 8.109308e-003 8.336520e-003 2.188613e-003 4.342992e-003 1.850220e-003 6.002748e-003 5.260341e-003 2.251242e-003 3.034903e-003 3.964799e-003 4.053077e-003 4.176400e-003 
1 7.574301e-003 1.448917e-001 3.679026e-002 2.382533e-002 2.979664e-002 3.339938e-002 2.961582e-002 8.306592e-003 2.124807e-002 1.369309e-002 7.085732e-003 1.030992e-002 4.586536e-003 6.342897e-003 8.493259e-003 4.223655e-003 3.362268e-003 4.169117e-003 1.703753e-003 3.878565e-003 1.471767e-003 4.503184e-003 2.663554e-003 1.380081e-003 3.819931e-003 
1 9.545917e-003 1.422713e-001 4.464606e-002 2.451581e-002 4.377664e-002 2.971523e-002 1.629936e-002 2.227275e-002 1.324210e-002 1.306114e-002 1.174195e-002 6.425198e-003 2.020690e-003 9.259732e-003 2.852674e-003 1.986144e-003 4.836398e-003 3.744305e-003 3.580203e-003 1.080866e-003 2.961107e-003 3.849266e-003 2.833898e-004 2.452834e-003 1.471329e-003 
1 3.352895e-002 1.371825e-001 4.109698e-002 4.883539e-002 2.214071e-002 2.195833e-002 3.342061e-002 1.419157e-002 1.198843e-002 2.980517e-002 2.235610e-003 6.985349e-003 1.846496e-003 2.351516e-003 8.780389e-003 3.783270e-003 2.410373e-003 1.569635e-003 4.628384e-003 1.553845e-003 2.752377e-003 2.126474e-003 1.073838e-003 2.676768e-003 3.548265e-003 
1 3.414155e-002 1.610046e-001 3.682279e-002 5.300397e-002 2.198418e-002 2.003711e-002 4.324495e-002 1.283835e-002 6.634494e-003 2.302419e-002 2.365236e-003 2.559343e-003 4.735188e-003 6.580260e-003 8.452143e-003 5.692484e-003 4.224836e-003 5.060691e-004 4.069886e-003 3.136590e-004 4.096909e-003 1.132312e-003 1.203820e-003 1.258043e-003 7.465631e-004 
1 7.920244e-002 1.468948e-001 6.907155e-002 3.274973e-002 3.363085e-002 6.705780e-002 2.364046e-002 5.196702e-002 1.129127e-002 2.277200e-002 1.741301e-002 6.425806e-004 2.693179e-003 4.196271e-003 6.580006e-003 2.439506e-003 6.702787e-003 1.751141e-003 4.519934e-003 8.150512e-003 5.425991e-003 1.236902e-003 3.104181e-003 1.727213e-003 3.071587e-003 
1 6.972872e-002 1.562727e-001 6.219785e-002 5.821101e-002 9.971071e-003 3.220951e-002 2.374457e-003 5.792998e-002 2.882107e-002 2.205939e-002 6.702268e-003 2.776969e-003 4.735299e-003 9.438392e-003 6.294473e-003 9.155630e-003 5.287039e-003 4.789160e-003 4.591979e-003 2.719182e-003 1.052108e-003 2.661882e-003 2.587617e-003 3.125587e-003 2.248890e-003 
1 6.129418e-002 1.580669e-001 4.863141e-002 4.674940e-002 7.775752e-003 5.334160e-002 1.054650e-002 5.004894e-002 3.305723e-002 2.444466e-002 5.130575e-003 2.078451e-003 2.882487e-003 3.831302e-003 2.527143e-003 1.042991e-002 4.023708e-003 3.569453e-003 7.794078e-003 5.028438e-003 2.442854e-003 1.833348e-003 1.467866e-003 5.079077e-003 6.282179e-003 
1 4.254956e-002 1.642268e-001 4.347478e-002 4.046120e-002 6.994669e-003 2.611600e-002 3.117761e-002 3.408118e-002 2.234799e-002 3.400030e-002 7.889795e-003 1.083830e-002 5.781795e-003 1.939786e-003 8.177789e-003 7.825813e-003 2.930565e-003 5.535374e-003 3.281260e-003 3.802018e-003 3.469055e-003 9.089557e-004 2.891473e-003 3.303149e-003 6.320862e-004 
1 1.564337e-002 1.828382e-001 2.131570e-002 1.147416e-002 1.457502e-002 2.601540e-002 1.857163e-002 2.053201e-003 1.533066e-002 1.072262e-002 9.325840e-003 1.092599e-002 8.516277e-003 1.777556e-003 4.673506e-003 4.000078e-003 5.465635e-003 5.048329e-003 4.689927e-003 1.840427e-003 1.258240e-003 1.741623e-003 2.432778e-003 8.196770e-004 2.955808e-003 
1 5.476495e-002 1.732242e-001 1.749718e-002 4.468768e-002 5.136034e-002 3.099117e-002 1.185664e-002 2.787463e-002 1.623028e-002 5.527814e-003 4.841572e-003 9.222251e-003 8.146261e-003 5.795471e-003 9.125433e-003 6.025718e-003 3.636987e-003 3.317728e-003 8.558984e-004 2.559381e-003 2.241205e-003 1.095276e-003 3.089755e-003 7.190496e-004 1.531521e-003 
1 5.013508e-002 1.766898e-001 1.518252e-002 1.731293e-002 4.895568e-002 2.441316e-002 3.410774e-003 3.058183e-002 8.330418e-003 7.061495e-003 1.000434e-002 2.428325e-003 4.291887e-003 4.599316e-003 1.083096e-002 3.350344e-003 1.570589e-003 4.745376e-003 1.533295e-003 2.296391e-003 2.680515e-003 2.853808e-003 1.102071e-003 2.008294e-003 1.240973e-003 
1 3.622634e-002 1.830236e-001 2.765606e-002 9.554111e-003 3.178843e-002 2.954268e-002 2.483997e-002 9.786580e-003 1.931788e-002 6.405396e-003 4.782888e-003 3.072327e-003 1.657943e-003 7.038259e-003 4.811687e-003 5.228071e-003 2.528872e-003 4.242169e-004 2.004636e-003 2.092649e-003 3.394585e-003 4.201175e-003 2.755931e-003 2.495959e-003 3.742062e-003 
1 4.615655e-002 1.714537e-001 2.279590e-002 3.965812e-002 5.383089e-002 3.599357e-002 8.644092e-003 9.061494e-003 1.229386e-002 1.005138e-002 1.752267e-003 1.149402e-002 6.375541e-003 4.813555e-003 7.601923e-003 3.034734e-003 8.499675e-003 2.297717e-003 7.157859e-004 3.460102e-003 1.940817e-003 2.513779e-003 1.529196e-003 4.014662e-003 2.518681e-003 
1 2.472173e-002 1.722110e-001 3.503538e-002 7.404791e-003 2.100748e-002 2.650320e-002 1.896438e-002 1.128434e-002 1.850178e-002 1.085943e-002 5.401756e-003 2.913341e-003 7.176353e-003 1.056512e-002 5.714723e-003 4.470430e-003 5.109291e-003 3.453957e-003 1.480077e-003 1.093459e-003 9.520118e-004 4.767893e-003 2.045738e-003 3.051096e-003 1.038568e-003 
1 2.997745e-002 1.770552e-001 1.333685e-002 2.438528e-002 4.848147e-002 3.011983e-002 1.670475e-002 1.521149e-002 1.676791e-002 8.669515e-003 8.351317e-003 9.589723e-003 7.221579e-003 2.973268e-003 1.793365e-003 5.675869e-003 2.683319e-003 1.788998e-003 2.294973e-003 3.288420e-003 1.608791e-003 1.650545e-003 9.869388e-004 2.474242e-003 3.063963e-003 
1 3.274174e-002 1.614986e-001 4.046739e-002 2.948838e-003 3.494448e-002 3.051325e-002 1.084708e-002 1.795440e-002 1.494309e-002 2.269327e-003 8.246408e-003 7.803435e-003 2.351233e-003 6.687347e-003 4.843320e-003 6.265887e-003 5.387869e-004 2.163493e-003 3.720428e-003 2.392649e-003 9.818042e-004 3.742207e-003 1.696922e-003 1.488343e-003 2.021349e-003 
1 2.539025e-002 1.656600e-001 1.805645e-002 9.655823e-003 4.872025e-002 2.839373e-002 1.498495e-002 2.402691e-002 1.530151e-002 3.985627e-003 8.046514e-003 6.534296e-003 2.625856e-003 4.560990e-003 3.869250e-003 8.928795e-003 1.914038e-003 7.980009e-004 2.894273e-003 8.389921e-004 3.344861e-003 1.700187e-003 1.178298e-003 3.009750e-003 1.292332e-003 
1 2.882844e-002 1.682444e-001 2.773024e-002 1.255987e-002 4.916311e-002 2.838991e-002 6.274256e-003 1.979547e-002 1.358005e-002 6.102971e-003 5.484651e-003 3.618204e-003 4.297505e-003 3.044283e-003 6.148508e-003 6.823904e-003 3.219343e-003 3.294466e-004 2.503727e-003 3.052983e-003 6.561928e-004 4.644932e-004 2.811028e-003 8.881609e-004 1.277934e-003 
1 1.474808e-002 1.629267e-001 2.587008e-002 8.653121e-003 4.879890e-002 3.684431e-002 6.972337e-003 2.100940e-002 1.572964e-002 7.399081e-003 4.228176e-003 7.732519e-003 9.022362e-004 1.021920e-002 3.853745e-003 1.064395e-002 5.197385e-003 2.513194e-003 1.640170e-003 2.884800e-003 1.957863e-003 1.826079e-003 3.337675e-003 1.523459e-003 1.929234e-003 
1 1.956185e-002 1.633604e-001 4.323909e-002 1.507547e-002 4.903455e-002 3.236464e-002 1.837045e-003 2.168473e-002 1.375063e-002 2.473589e-003 4.660051e-003 4.780941e-003 3.729210e-003 5.951470e-003 4.273636e-003 8.334101e-003 3.432454e-003 3.035442e-003 9.780031e-004 1.988632e-003 3.208260e-003 2.946655e-003 1.007624e-003 3.749713e-003 5.563764e-004 
1 2.302162e-002 1.695312e-001 4.422270e-002 1.183639e-002 5.352482e-002 3.585744e-002 1.569411e-003 2.488584e-002 1.574003e-002 8.075237e-003 3.642222e-003 2.810110e-003 7.198259e-003 4.724881e-003 4.148880e-003 7.470510e-003 3.013027e-003 3.591872e-003 1.822952e-003 1.316386e-003 1.057123e-003 2.033818e-003 2.114713e-003 7.656877e-004 3.165785e-003 
1 3.117770e-002 1.703632e-001 4.150730e-002 1.663846e-002 5.743491e-002 3.543418e-002 8.910499e-003 3.304282e-002 8.510609e-003 7.180458e-003 1.081372e-002 2.816558e-003 6.444354e-003 5.589018e-003 5.438986e-003 4.401736e-003 7.899042e-003 2.584004e-003 6.414408e-003 3.227179e-003 3.541045e-003 1.304337e-003 2.005964e-003 3.717429e-003 2.529590e-003 
1 3.701874e-002 1.695502e-001 4.612893e-002 2.449653e-002 4.532965e-002 4.237441e-002 1.335915e-002 3.353963e-002 6.084978e-003 1.076725e-002 7.180611e-003 8.444973e-003 9.191325e-003 1.070472e-002 7.501420e-003 2.396610e-003 4.486480e-003 1.012965e-003 2.303247e-003 9.547534e-004 2.231491e-003 9.276947e-004 4.827900e-003 3.481183e-003 4.955444e-003 
1 3.832534e-002 1.701341e-001 5.732584e-002 3.984419e-002 4.551402e-002 3.288612e-002 1.918567e-002 2.958250e-002 4.928636e-003 1.092582e-002 5.315852e-003 9.355739e-003 7.970491e-003 4.298354e-003 5.688000e-003 8.017002e-003 1.974794e-003 1.378121e-003 2.941767e-003 2.635906e-003 1.416088e-003 2.650442e-003 1.535280e-003 2.925648e-004 2.636382e-003 
1 4.933081e-002 1.621464e-001 6.531671e-002 4.139289e-002 3.826649e-002 4.358691e-002 2.373565e-002 3.014551e-002 3.435766e-003 1.184647e-002 6.979634e-003 8.961830e-003 7.905483e-003 1.387332e-002 4.751300e-003 4.662597e-003 4.492263e-004 5.681748e-003 3.685672e-004 3.253498e-003 2.577312e-003 3.022205e-003 2.380604e-003 3.565909e-003 3.197198e-003 
1 4.691331e-002 1.655478e-001 7.921943e-002 4.343063e-002 6.016595e-002 2.457013e-002 1.094073e-002 2.676387e-002 6.244361e-003 5.453703e-003 1.225682e-002 5.537424e-003 3.642045e-003 1.713462e-003 1.459869e-003 3.564492e-003 5.646896e-003 2.714994e-003 4.572410e-003 6.286094e-003 7.729569e-004 1.182116e-003 2.765027e-003 2.307148e-003 2.017313e-003 
1 3.284050e-002 1.711988e-001 7.306486e-002 4.205838e-002 6.078559e-002 3.014432e-002 4.482085e-003 2.481337e-002 8.795908e-003 3.353829e-003 8.181610e-003 4.622914e-003 2.301082e-003 1.828873e-004 8.865585e-003 5.549552e-003 6.737379e-003 3.814443e-003 3.768644e-003 9.656373e-003 2.562278e-003 2.337220e-003 1.886981e-003 3.653711e-003 1.367534e-003 
1 4.008433e-002 1.711528e-001 7.127522e-002 3.586789e-002 6.151247e-002 1.551938e-002 2.142017e-002 2.907017e-002 9.012954e-003 6.468281e-003 6.225433e-003 4.317984e-003 7.629528e-003 5.427369e-003 5.698035e-003 8.159709e-003 1.781095e-003 5.930051e-003 3.253332e-003 7.661325e-004 3.555628e-003 4.357453e-003 4.151883e-003 1.311892e-003 4.087951e-003 
1 5.644782e-002 1.538260e-001 1.082769e-001 3.744142e-002 5.693178e-002 1.184398e-003 2.842311e-002 1.268615e-002 1.186941e-002 1.319655e-002 7.544805e-003 1.065233e-002 4.066309e-003 4.334342e-003 6.660417e-004 3.619887e-003 2.857965e-003 2.742940e-003 3.283667e-003 1.264960e-003 2.907624e-003 8.404681e-004 1.866555e-003 2.074032e-003 1.303970e-003 
1 2.951063e-002 1.698098e-001 8.574746e-002 5.857179e-002 7.358734e-002 2.762445e-002 3.561137e-002 8.328041e-003 1.560680e-002 8.090643e-003 2.818580e-003 6.011635e-003 3.957395e-003 7.110513e-003 7.092011e-003 3.023686e-003 6.811089e-003 5.838701e-003 3.466101e-003 1.492271e-003 2.548081e-003 3.360375e-003 3.004177e-003 2.354024e-003 2.707735e-003 
1 2.496475e-003 1.649344e-001 5.831582e-002 8.162587e-002 9.112100e-002 2.548605e-002 2.147214e-002 3.608129e-002 3.130438e-002 9.100820e-003 3.239465e-003 9.767215e-003 2.429631e-003 3.223374e-003 1.117461e-002 7.019220e-003 9.597163e-003 2.147692e-003 4.463633e-003 3.946695e-003 1.201872e-003 1.313180e-003 6.061226e-003 2.550681e-003 1.706961e-003 
1 6.766544e-002 1.816831e-001 8.932304e-002 5.100143e-002 2.873856e-002 5.091429e-002 4.893584e-002 1.492270e-002 1.674025e-002 3.184956e-002 1.885655e-002 2.444640e-002 1.332722e-002 3.249754e-003 4.790770e-003 7.348336e-003 1.412975e-003 2.562629e-003 4.542231e-003 1.573365e-003 2.629946e-003 3.583548e-003 3.206397e-003 3.669370e-003 2.431249e-003 
1 5.651668e-002 1.680419e-001 1.084177e-001 2.508930e-002 4.812182e-002 1.605712e-002 5.355151e-002 2.197589e-002 1.686536e-002 1.134336e-002 1.893541e-002 7.913610e-003 1.567452e-002 1.247403e-002 8.442466e-003 4.123176e-003 7.884050e-004 5.885861e-003 4.708224e-003 6.306012e-003 1.064770e-003 4.118442e-003 6.548975e-003 1.905860e-003 2.210258e-003 
1 4.778173e-002 1.736196e-001 9.536959e-002 3.737203e-002 6.553848e-002 9.704015e-003 2.978103e-002 9.371946e-003 1.213052e-002 2.813854e-002 1.024847e-002 1.534349e-002 1.972597e-002 6.103516e-003 8.818930e-003 4.088628e-003 6.071103e-003 5.124771e-003 1.673111e-003 1.498589e-003 3.882690e-003 2.207362e-003 1.594859e-003 2.676977e-003 2.230165e-003 
1 5.429704e-002 1.566799e-001 1.079100e-001 3.901461e-002 6.918380e-002 2.846653e-002 1.205603e-002 1.253507e-002 7.288126e-003 2.035060e-002 2.085812e-002 8.372627e-003 1.147901e-002 6.217520e-003 2.366228e-003 2.058434e-003 5.659223e-003 2.656823e-003 2.082555e-003 1.104453e-003 4.060431e-003 4.559298e-003 4.068136e-003 3.379300e-003 2.870703e-003 
1 3.181313e-002 1.688786e-001 1.042685e-001 1.708225e-002 6.099194e-002 2.308089e-002 2.304616e-002 7.983587e-003 7.996065e-003 1.986701e-002 6.876239e-003 1.494892e-002 1.187903e-002 1.197895e-002 8.114135e-003 7.338380e-003 2.495161e-003 3.606060e-003 2.777353e-003 3.332597e-003 9.920848e-004 1.363268e-003 2.372014e-003 5.010212e-004 3.230006e-003 
1 4.171665e-002 1.671848e-001 1.109471e-001 3.788046e-002 5.951203e-002 1.546358e-002 2.082971e-002 1.681189e-002 1.497720e-002 1.162405e-002 5.289009e-003 1.549010e-002 1.400596e-002 1.162283e-002 8.264931e-003 1.112699e-002 4.496520e-003 6.685712e-003 3.956705e-004 4.082532e-003 5.253011e-003 3.730394e-003 4.649987e-003 1.347105e-003 2.157881e-003 
1 4.144756e-002 1.766030e-001 7.693522e-002 5.937906e-002 5.751471e-002 2.352787e-002 3.526002e-002 2.917657e-002 1.455852e-002 1.724511e-002 6.915180e-003 1.083957e-002 8.770766e-003 2.738118e-003 2.278383e-003 6.909367e-003 6.121411e-003 4.877468e-003 2.332846e-003 2.326481e-003 2.614623e-003 6.263249e-003 5.061267e-004 1.269678e-003 1.421591e-003 
1 5.204728e-002 1.705977e-001 7.297110e-002 7.572568e-002 3.609606e-002 5.252829e-002 5.095342e-002 2.554562e-002 1.332540e-002 1.008628e-002 6.201390e-003 1.690677e-002 7.746088e-003 7.646062e-003 4.024105e-003 5.521210e-003 5.505067e-004 1.107347e-003 4.220862e-003 3.361983e-003 8.681594e-004 9.319196e-004 6.124825e-003 1.585209e-003 1.186777e-003 
1 7.674126e-002 1.766025e-001 7.023901e-002 5.882711e-002 7.974541e-003 6.113918e-002 2.941192e-003 3.390881e-002 5.170583e-002 2.674829e-002 8.524296e-003 1.149053e-002 1.094621e-002 7.749939e-003 2.713621e-003 5.360249e-003 4.033521e-003 3.960016e-003 2.414020e-003 1.353416e-003 4.498579e-003 1.699941e-003 2.397294e-003 3.194290e-003 1.702220e-003 
1 7.057902e-002 1.532016e-001 6.321459e-002 3.130582e-002 3.309725e-002 7.701731e-002 1.458107e-002 3.964293e-002 6.126107e-002 2.425173e-002 2.113103e-002 1.992130e-003 1.066846e-002 6.705723e-003 8.010499e-003 9.652490e-003 2.546803e-003 2.765838e-003 2.776997e-003 3.917832e-003 3.572632e-003 8.840764e-004 3.603223e-003 3.738538e-003 2.461106e-003 
1 9.144695e-002 1.445972e-001 7.163576e-002 4.571522e-002 1.245624e-002 6.360666e-002 5.301463e-002 5.562469e-002 6.103336e-002 2.285351e-002 1.329197e-002 4.614699e-004 6.331480e-003 7.975991e-003 4.981627e-003 3.093351e-003 4.374582e-003 6.757155e-003 9.448704e-004 2.669992e-003 3.319674e-003 3.834452e-003 1.352303e-003 5.195833e-003 2.265608e-003 
1 3.104914e-002 1.602376e-001 5.866960e-002 1.456149e-002 7.914432e-002 5.853567e-002 2.965284e-002 3.124160e-002 2.562801e-002 1.758308e-002 1.458801e-002 1.508927e-002 1.350875e-002 3.547034e-003 1.032668e-002 7.770329e-003 5.701819e-003 7.293580e-003 5.877749e-004 8.709462e-004 1.713955e-003 1.287705e-003 9.807492e-004 2.868409e-003 2.425728e-003 
1 5.741298e-002 1.507851e-001 4.679664e-002 3.079162e-002 5.704777e-002 7.928820e-002 1.082570e-002 6.696116e-003 5.308791e-002 3.032099e-002 1.810177e-002 2.018683e-002 8.006556e-003 1.018683e-002 2.319652e-003 2.957136e-003 2.357241e-003 5.840429e-003 4.495596e-003 2.837873e-003 4.346320e-003 2.024304e-003 2.765902e-003 1.083084e-003 1.136771e-003 
1 3.015179e-002 1.498803e-001 4.802956e-002 3.354285e-002 8.281898e-002 4.961178e-002 2.396986e-002 4.269868e-002 1.689184e-002 9.034996e-003 9.292243e-003 1.223144e-002 1.087605e-002 3.569704e-003 8.147354e-003 4.782841e-004 9.051811e-003 3.431721e-003 4.144820e-003 7.550769e-004 4.524449e-003 2.788786e-003 5.293628e-004 8.361886e-004 3.338991e-003 
1 1.603985e-002 1.584495e-001 4.888737e-002 2.437184e-002 7.423511e-002 2.638097e-002 4.266667e-002 1.712164e-002 1.623493e-002 3.039153e-002 5.901405e-003 9.421890e-003 1.047698e-002 6.202358e-003 8.544005e-003 2.207117e-003 9.339937e-003 5.070725e-003 5.983318e-003 3.249993e-003 3.249231e-003 1.950294e-003 1.492342e-003 1.513526e-003 2.959812e-003 
1 3.825375e-002 1.349122e-001 5.507355e-002 5.144637e-002 5.389411e-002 4.846044e-002 1.525604e-002 1.446288e-002 3.778424e-002 1.339886e-002 1.690381e-002 1.206224e-002 5.947742e-003 5.724839e-003 4.226901e-003 3.916511e-003 3.697072e-003 1.872736e-003 8.837516e-004 5.953522e-004 2.478133e-003 3.619278e-004 5.349118e-004 2.420492e-003 8.710482e-004 
1 5.031750e-002 1.397716e-001 4.556222e-002 5.751503e-002 2.921699e-002 6.106280e-002 1.573068e-002 1.728945e-002 4.793357e-002 1.335334e-002 9.869967e-003 8.894477e-003 1.141183e-002 5.213501e-003 4.854217e-003 2.302345e-003 4.707187e-003 6.494018e-003 1.963577e-003 2.514721e-003 9.183907e-004 4.665153e-003 3.286572e-003 9.874719e-004 3.070200e-003 
1 6.307258e-002 1.449312e-001 4.602910e-002 6.185002e-002 1.737074e-002 7.779925e-002 1.809637e-002 2.368909e-002 4.492470e-002 6.412547e-003 9.527365e-003 1.905025e-003 1.006531e-002 6.683218e-003 3.272480e-003 2.344846e-003 4.325022e-003 3.935295e-003 6.138168e-003 3.101569e-003 3.224614e-003 1.645524e-003 5.403030e-003 5.122758e-003 3.551668e-003 
1 6.712803e-002 1.491147e-001 4.130599e-002 6.469222e-002 8.254222e-003 7.796023e-002 2.681310e-002 2.490477e-002 4.093957e-002 6.822128e-003 1.386183e-002 2.610007e-003 1.722602e-002 9.543583e-004 6.671587e-003 3.783368e-003 1.387337e-003 3.015454e-003 6.892229e-003 3.434534e-003 6.572954e-004 2.901941e-003 6.621824e-003 2.054537e-003 1.557399e-003 
1 8.069012e-002 1.506694e-001 4.049360e-002 4.892333e-002 2.326947e-002 8.224771e-002 2.366908e-002 4.270530e-002 4.346082e-002 9.242605e-003 1.640669e-002 1.554875e-002 1.751964e-002 5.475094e-003 3.973806e-003 5.834198e-003 7.131247e-003 3.037844e-003 5.306911e-003 1.460950e-003 1.371063e-003 5.189627e-003 3.448146e-003 3.292095e-003 1.340394e-003 
1 8.241984e-002 1.526782e-001 3.973290e-002 4.778381e-002 3.967979e-002 5.673303e-002 4.660713e-002 4.206877e-002 3.744894e-002 4.120188e-003 2.653769e-002 5.525006e-003 1.286387e-002 7.519156e-003 2.025018e-003 7.619051e-003 1.354842e-003 3.232199e-003 9.895979e-004 2.282273e-003 4.096052e-003 1.293521e-003 2.924089e-003 3.403156e-003 2.221037e-003 
1 9.545703e-002 1.368717e-001 6.603372e-002 4.416492e-002 3.109802e-002 2.301173e-002 8.393813e-002 4.951021e-002 2.133686e-002 1.820602e-002 2.345882e-002 4.409345e-003 3.683162e-003 1.373013e-002 5.071421e-003 4.859468e-003 2.435700e-003 2.014255e-003 3.118742e-003 3.157473e-003 1.331273e-003 1.130585e-003 1.836328e-003 4.694855e-003 1.703713e-004 
1 7.381622e-002 1.442507e-001 4.719144e-002 4.997361e-002 4.196904e-002 6.929293e-002 2.325531e-002 2.859294e-002 3.550334e-002 2.773000e-002 1.592096e-002 8.299840e-003 1.003486e-002 9.746054e-003 3.001932e-003 9.323189e-003 5.245800e-003 1.092018e-003 3.746133e-003 3.839382e-003 1.883129e-003 1.941134e-003 1.774074e-003 5.673711e-003 1.022752e-003 
1 4.885351e-002 1.497420e-001 3.051203e-002 6.360145e-002 2.160993e-002 7.264623e-002 1.215628e-002 5.187968e-003 3.913652e-002 6.152138e-003 1.357749e-002 6.673521e-003 1.480271e-002 8.397878e-003 6.346516e-003 5.179782e-003 2.449376e-004 1.780639e-003 5.818253e-003 8.734587e-004 3.842236e-003 2.335322e-003 2.141843e-003 2.662356e-003 3.720480e-004 
1 7.086312e-002 1.340311e-001 4.930892e-002 5.640007e-002 1.813089e-002 7.680376e-002 1.259316e-002 3.261837e-002 1.706016e-002 2.380055e-002 3.187593e-003 1.478744e-002 4.498811e-003 8.258468e-003 2.446336e-003 3.507343e-004 3.141818e-003 5.093949e-003 4.213863e-003 2.260235e-003 4.826054e-003 2.729812e-003 2.699496e-003 9.814662e-004 3.876845e-003 
1 8.137250e-002 1.446527e-001 5.610687e-002 6.130754e-002 4.544050e-002 6.684907e-002 1.547662e-002 4.473454e-002 1.123078e-002 2.216230e-002 2.638785e-003 1.580221e-002 1.202809e-003 4.050433e-003 6.163443e-003 1.822901e-003 7.928285e-003 2.481377e-003 2.614304e-003 6.355455e-003 3.589624e-003 1.685578e-003 3.658745e-004 3.314155e-003 1.219532e-003 
1 5.936416e-002 1.552147e-001 4.154602e-002 9.399742e-002 2.236152e-002 4.635060e-002 2.750335e-002 2.317052e-002 1.286348e-002 1.809179e-002 9.049961e-003 6.146635e-003 2.308831e-003 1.124745e-002 5.800153e-003 5.530616e-003 1.252937e-003 1.237650e-003 2.479227e-003 3.113987e-003 1.799521e-003 1.785473e-003 2.219838e-003 1.412529e-003 4.454393e-003 
1 6.815933e-002 1.468551e-001 7.763069e-002 9.319200e-002 3.038566e-002 2.858776e-002 3.758265e-002 8.138655e-003 2.170228e-003 1.695850e-002 1.144831e-002 5.324669e-003 2.938832e-003 4.082931e-003 7.593107e-003 7.212835e-003 3.961444e-003 4.536051e-003 2.142501e-003 2.030961e-003 2.384784e-003 3.886943e-003 2.408376e-003 2.469926e-003 1.663986e-003 
1 8.134248e-002 1.480764e-001 7.000474e-002 2.678824e-002 3.494633e-002 5.647522e-002 5.175073e-002 6.144429e-002 4.976709e-002 1.343021e-002 1.008993e-002 3.029592e-003 5.874032e-003 1.699126e-003 6.690330e-003 4.846237e-003 1.347695e-003 2.303699e-003 3.554603e-003 2.002880e-003 3.827906e-003 2.934942e-003 1.727854e-003 3.649149e-003 1.094412e-003 
1 7.628729e-002 1.483264e-001 6.285672e-002 1.772414e-002 3.184318e-002 6.901006e-002 4.853154e-002 6.112496e-002 5.101384e-002 1.154252e-002 6.673027e-004 4.529291e-003 3.870282e-003 3.670177e-003 9.388492e-003 9.200575e-003 1.405251e-003 1.554500e-003 5.241162e-003 4.558496e-003 1.025303e-003 1.736404e-003 2.205578e-003 5.021814e-003 5.183293e-003 
1 7.364438e-002 1.481415e-001 6.441359e-002 2.560414e-002 2.613172e-002 8.688242e-002 7.234061e-003 5.181216e-002 3.192653e-002 3.350468e-002 9.815746e-003 7.043586e-003 5.856359e-003 3.016965e-003 4.021678e-003 8.816037e-003 3.489854e-003 7.208297e-003 1.400778e-003 4.511755e-003 1.642795e-003 2.976605e-003 3.951447e-003 1.932137e-003 3.711445e-004 
1 7.203564e-002 1.621981e-001 5.338661e-002 5.266582e-002 3.085823e-002 6.423031e-002 5.706194e-003 6.600138e-002 2.412848e-002 3.263414e-002 1.007533e-002 1.337511e-002 9.591770e-003 6.547666e-003 3.091972e-003 4.152917e-003 7.034799e-003 6.201305e-003 2.089650e-003 4.114715e-003 3.147209e-003 1.121660e-003 1.777325e-003 5.684254e-004 3.566012e-003 
1 5.626728e-002 1.504029e-001 3.933816e-002 7.372222e-002 8.289364e-003 6.395076e-002 3.201304e-002 3.909694e-002 1.304369e-002 2.202069e-002 1.416314e-003 9.669100e-003 6.942312e-003 3.784922e-003 2.735014e-003 2.845619e-003 2.452760e-003 7.546380e-003 5.160625e-003 8.051098e-003 3.876207e-003 3.820959e-003 3.930396e-003 1.307293e-003 1.859976e-003 
1 5.043644e-002 1.477840e-001 3.936723e-002 8.457249e-002 1.864781e-002 4.630823e-002 4.008317e-002 1.938568e-002 5.644390e-003 2.489199e-002 2.564884e-003 1.630434e-002 4.392608e-003 6.232714e-003 5.205643e-003 6.102357e-003 4.411039e-003 3.323781e-003 2.817299e-003 3.688242e-003 3.592154e-003 2.299144e-003 3.072660e-003 3.816783e-003 2.606134e-003 
1 4.399783e-002 1.465595e-001 2.585378e-002 9.195624e-002 2.759413e-002 3.559547e-002 3.876487e-002 1.130305e-002 1.027094e-002 1.592168e-002 2.142840e-003 4.026327e-003 4.132421e-003 1.016053e-002 1.773364e-003 7.348547e-003 6.824680e-003 6.478444e-003 3.324155e-003 1.838600e-003 4.432311e-003 3.296315e-003 1.627728e-003 3.659909e-004 1.217404e-003 
1 3.630392e-002 1.507874e-001 2.494586e-002 7.821661e-002 4.328780e-002 2.294577e-002 4.562187e-002 1.422043e-002 5.369861e-003 1.836683e-002 1.644530e-003 7.599072e-003 6.539080e-003 2.706014e-003 7.473357e-003 2.389674e-003 4.223779e-003 3.572313e-003 3.171304e-003 7.665784e-004 5.689389e-003 3.162555e-003 1.160805e-003 1.887898e-003 1.615092e-003 
1 3.670249e-002 1.565250e-001 2.231641e-002 7.476872e-002 2.884879e-002 4.003850e-002 3.491265e-002 1.480280e-002 1.264899e-002 1.628453e-002 1.270685e-002 5.954841e-003 1.149393e-002 5.072887e-004 5.392687e-003 7.980533e-003 7.597533e-003 2.704792e-003 7.420668e-004 1.434082e-003 2.544947e-003 2.295107e-003 1.996062e-003 3.178371e-003 1.313871e-003 
1 3.322418e-002 1.518245e-001 2.366100e-002 7.481283e-002 4.266492e-002 3.425123e-002 4.050138e-002 1.617742e-002 8.449190e-003 1.734736e-002 1.062406e-002 3.041190e-003 7.694343e-003 2.153394e-003 5.714638e-003 3.667712e-004 5.451660e-003 2.941404e-003 4.117368e-003 1.582864e-003 3.096438e-003 1.532827e-003 2.453436e-003 1.113810e-003 3.719871e-003 
1 4.160098e-002 1.537257e-001 4.576431e-002 5.771373e-002 5.285030e-002 3.530888e-002 2.815153e-002 2.161796e-002 9.170281e-003 1.335432e-002 6.965585e-003 2.512778e-003 8.047468e-003 8.193165e-003 7.135068e-003 4.492190e-003 3.799029e-005 4.798148e-003 1.152549e-003 6.474060e-003 2.365028e-003 5.945565e-004 1.994166e-003 1.146843e-003 7.851634e-004 
1 3.205632e-002 1.506660e-001 2.806878e-002 6.103447e-002 4.123481e-002 3.868167e-002 4.248506e-002 1.749102e-002 5.864926e-003 1.595385e-002 8.414163e-003 6.372842e-003 1.024910e-002 5.208105e-003 7.232366e-004 5.048770e-003 6.308530e-003 3.005401e-003 2.146176e-003 6.001711e-003 4.609338e-003 1.665257e-003 1.882951e-003 2.793069e-003 9.985722e-004 
1 4.345796e-002 1.363228e-001 1.815766e-002 5.871239e-002 2.924619e-002 6.020582e-002 2.906296e-002 1.783621e-002 1.764903e-002 2.191170e-003 1.601790e-002 9.397508e-003 1.660937e-002 3.681476e-003 7.833855e-003 4.194445e-003 4.222805e-003 9.000680e-004 1.286030e-003 2.088631e-003 2.915110e-003 1.800742e-003 3.834063e-003 8.053027e-004 4.264581e-003 
1 3.499977e-002 1.371682e-001 2.213889e-002 6.116961e-002 4.202636e-002 6.072972e-002 2.971384e-002 2.095458e-002 2.675455e-002 9.093157e-003 1.496016e-002 1.080065e-002 5.398869e-003 7.101716e-003 2.231056e-003 1.194400e-002 9.611339e-005 8.498477e-003 4.249196e-003 5.870035e-003 4.358878e-003 3.803026e-003 4.940105e-003 3.801128e-003 6.459351e-004 
1 2.528271e-002 1.484120e-001 1.187574e-002 5.645368e-002 6.192930e-002 5.532100e-002 3.553894e-002 2.368107e-002 1.953245e-002 1.145218e-002 7.241096e-003 1.012718e-002 6.427102e-003 6.340382e-003 3.457492e-003 1.011924e-002 4.283847e-003 6.744165e-003 7.778709e-004 6.245671e-003 4.199590e-003 2.225137e-003 1.029094e-003 3.090572e-003 2.015604e-003 
1 4.657712e-002 1.436048e-001 3.626829e-002 7.058296e-002 4.174215e-002 5.131887e-002 1.257071e-002 1.103775e-002 2.492434e-002 7.415865e-003 1.569738e-002 1.368846e-002 1.195937e-002 9.903489e-003 2.776936e-003 4.022052e-003 4.586466e-003 3.015879e-003 3.114369e-003 2.435698e-003 3.247913e-003 1.320205e-003 4.174326e-003 4.024207e-003 3.299593e-004 
1 5.399808e-002 1.489012e-001 5.490814e-002 5.140957e-002 5.325651e-002 4.685819e-002 1.435010e-002 2.399488e-002 1.682921e-002 1.296102e-002 7.724867e-004 1.276498e-002 5.198749e-003 1.038409e-002 8.236365e-003 6.195979e-003 3.274516e-003 2.958166e-003 7.033368e-003 3.967724e-003 2.952894e-003 1.741715e-003 1.143909e-003 1.250200e-003 2.497895e-003 
1 5.734015e-002 1.445661e-001 6.677243e-002 5.424615e-002 4.855341e-002 4.681343e-002 9.906045e-003 1.928785e-002 1.894491e-002 3.723167e-003 1.533034e-003 1.016269e-002 9.242783e-003 1.294766e-002 5.607476e-003 4.937382e-003 9.452038e-004 4.951969e-003 1.134636e-003 3.205923e-003 3.577755e-003 4.884336e-003 3.036435e-003 1.791604e-003 3.547413e-003 
1 5.114918e-002 1.513235e-001 8.028937e-002 4.510625e-002 6.376307e-002 3.572264e-002 4.689973e-003 1.986652e-002 2.059148e-002 8.650472e-003 7.129905e-003 5.454452e-003 2.865837e-003 6.768589e-003 6.371101e-003 6.772248e-003 3.720726e-003 8.270718e-003 3.110737e-003 2.437848e-003 1.315596e-003 2.105587e-003 5.456504e-004 9.773521e-004 2.418395e-003 
1 5.767102e-002 1.531571e-001 7.710153e-002 5.447241e-002 4.537611e-002 3.627729e-002 7.370442e-003 1.646641e-002 2.055116e-002 1.076218e-002 5.925741e-004 1.376909e-002 1.177472e-002 8.132111e-003 3.247613e-003 1.651609e-003 1.668402e-003 5.773231e-003 4.728246e-003 4.526104e-003 8.083574e-004 5.104356e-003 2.633414e-003 3.022293e-003 1.414372e-003 
1 4.984421e-002 1.348847e-001 9.162732e-002 3.973876e-002 7.252895e-002 2.636775e-002 7.062279e-003 2.397565e-002 1.266732e-002 4.268407e-003 6.334242e-003 3.589364e-003 4.976456e-004 7.245859e-003 9.092891e-004 9.035041e-003 2.140780e-003 3.774913e-003 5.431966e-003 2.644926e-003 2.346005e-003 3.697685e-003 3.761830e-003 5.495554e-003 6.174889e-004 
1 7.511197e-002 1.299964e-001 9.749997e-002 5.517987e-002 4.954332e-002 2.008089e-002 1.436782e-002 8.772235e-003 1.960119e-002 7.564134e-003 6.086883e-003 6.899311e-003 9.055112e-003 3.691679e-003 3.389511e-003 4.384517e-003 3.596490e-003 3.335703e-003 1.637395e-003 1.039438e-003 2.887622e-003 3.086293e-004 3.708441e-003 3.567692e-003 2.603047e-003 
1 6.244153e-002 1.379440e-001 8.910932e-002 5.788737e-002 5.817992e-002 2.542767e-002 1.651970e-002 1.703202e-002 2.056796e-002 1.190292e-002 9.015697e-003 7.292431e-004 1.463845e-002 5.675510e-003 6.526463e-003 7.556597e-003 6.801838e-003 2.572167e-003 2.055306e-003 3.150946e-003 2.573966e-003 1.519784e-003 2.371080e-003 3.502562e-003 1.052773e-003 
1 5.803461e-002 1.231123e-001 1.219294e-001 4.317308e-002 6.198702e-002 1.131111e-002 1.740550e-002 2.195010e-002 1.517452e-002 1.070754e-002 4.600949e-003 7.200890e-003 7.504845e-003 6.782275e-003 5.532236e-003 4.377187e-003 1.565978e-003 3.685249e-003 5.172680e-003 7.730358e-004 1.608324e-003 1.082425e-004 2.622868e-003 1.139672e-003 8.817264e-004 
1 2.548177e-002 1.478788e-001 7.876733e-002 8.455071e-002 1.004185e-001 8.187700e-003 2.717479e-002 1.200412e-002 1.419091e-002 5.247687e-003 2.368403e-003 1.028983e-002 6.342747e-003 2.801385e-003 4.490945e-004 5.088740e-003 5.646427e-003 5.669482e-003 4.955293e-003 3.490778e-003 5.527108e-003 3.025798e-003 6.575941e-003 4.352204e-003 4.557305e-004 
1 5.252634e-002 1.617229e-001 1.159781e-001 5.192906e-002 5.438530e-002 8.948847e-003 3.719308e-002 9.366865e-003 1.630591e-002 8.106273e-003 8.915589e-003 1.654834e-003 9.905707e-003 8.677138e-003 9.843814e-003 5.683643e-003 7.777125e-004 5.181740e-003 2.337206e-003 1.404088e-003 6.589354e-003 3.191304e-003 2.817072e-003 1.448083e-003 4.093104e-003 
1 6.211364e-002 1.550596e-001 9.630623e-002 6.602755e-002 3.210463e-002 4.311500e-002 4.613233e-002 3.993882e-003 3.526371e-003 1.534570e-002 2.295261e-002 1.000821e-002 1.507227e-002 3.442349e-003 6.957471e-003 1.178942e-003 1.170727e-003 5.833379e-003 3.649566e-003 2.854240e-003 3.509411e-003 3.799140e-003 2.396305e-003 4.073307e-003 1.097533e-003 
1 7.531121e-002 1.510977e-001 8.999155e-002 7.284612e-002 2.736498e-002 4.604136e-002 2.929019e-002 2.400119e-002 2.171616e-002 2.888052e-002 2.810379e-002 5.852119e-003 7.739957e-003 3.770099e-003 6.400661e-003 6.415139e-003 5.318976e-003 9.808658e-004 6.519566e-003 2.870688e-003 1.390327e-003 2.174126e-003 2.405515e-003 1.045856e-003 2.588022e-004 
1 6.134054e-002 1.535979e-001 7.717820e-002 6.770714e-002 5.370207e-002 3.910458e-002 2.169812e-002 2.237829e-002 1.628992e-002 4.041885e-002 2.678049e-002 1.825804e-002 1.160112e-002 5.663138e-004 5.587716e-003 5.930126e-003 6.903873e-003 1.698071e-003 3.620210e-003 1.396568e-003 1.190328e-003 1.028851e-003 4.893563e-003 9.505491e-005 2.150729e-003 
1 5.151179e-002 1.505809e-001 9.844905e-002 6.116277e-002 6.422952e-002 4.642864e-003 2.564998e-002 1.536707e-002 6.024337e-003 2.221631e-002 2.739044e-002 1.696928e-002 1.916680e-002 1.151902e-002 5.861173e-003 6.609857e-003 2.259263e-003 2.398921e-003 3.298017e-003 4.081674e-003 4.284954e-003 2.979439e-003 3.397854e-003 8.223492e-004 3.349557e-003 
1 5.694928e-002 1.517012e-001 8.097337e-002 6.314068e-002 5.845493e-002 9.018605e-003 3.444727e-002 2.904613e-002 2.338792e-002 2.411719e-002 3.495631e-002 1.094827e-002 1.208925e-002 6.299460e-004 3.710042e-003 9.285538e-003 1.562851e-003 1.433748e-003 2.013656e-003 3.586867e-003 7.770386e-003 5.023288e-003 9.894303e-004 1.218963e-003 2.688557e-003 
1 3.034696e-002 1.385990e-001 1.078302e-001 4.658337e-002 8.027673e-002 3.728641e-002 2.146803e-002 2.892836e-002 1.621799e-002 6.380451e-003 1.784555e-002 1.010008e-002 1.156086e-002 9.255582e-003 1.314445e-002 1.625320e-003 2.227101e-003 2.985690e-003 4.351513e-003 2.706685e-003 3.868036e-003 2.328497e-003 4.968208e-004 2.695980e-003 1.719211e-003 
1 3.574016e-002 1.180044e-001 1.313325e-001 3.826972e-002 6.172038e-002 2.646163e-002 2.933257e-002 1.757456e-002 1.114625e-002 1.211635e-002 1.243069e-002 4.359925e-003 9.295895e-003 1.059636e-002 1.333855e-002 6.581004e-003 3.080549e-003 5.626283e-003 1.536981e-003 1.776186e-003 1.972752e-003 4.041300e-003 1.785418e-003 8.403570e-004 1.228022e-003 
1 4.145686e-002 1.338472e-001 1.128586e-001 4.582181e-002 5.402398e-002 8.421784e-003 3.949723e-002 1.052145e-002 1.860179e-002 2.721079e-003 2.202377e-002 1.012296e-002 9.822720e-003 1.003141e-002 5.226305e-003 5.129221e-003 5.783512e-003 4.374826e-003 7.557499e-003 3.950050e-003 2.501402e-003 1.549472e-003 2.680301e-003 1.098253e-003 2.765071e-003 
1 2.264594e-002 1.263724e-001 1.290989e-001 4.621627e-002 5.190553e-002 3.071965e-002 3.458823e-002 8.474528e-003 6.696835e-003 1.212659e-002 4.638696e-003 5.750966e-003 7.322256e-003 8.176964e-003 1.244100e-002 1.124395e-002 2.958434e-003 2.554699e-003 4.715377e-003 3.602712e-003 1.162147e-003 3.577270e-003 4.443895e-003 4.342568e-003 3.374797e-003 
1 4.466211e-002 1.135553e-001 1.166300e-001 4.120485e-002 6.839357e-002 2.843015e-002 4.895655e-002 1.018521e-002 2.358994e-002 9.606680e-003 1.332190e-002 9.173430e-003 1.982010e-003 5.952912e-003 2.445890e-003 6.068134e-003 1.820248e-003 1.489279e-003 6.980423e-003 7.662458e-003 9.286935e-004 8.524323e-003 2.953750e-003 8.940924e-004 1.090961e-003 
1 3.770089e-002 1.148032e-001 1.105030e-001 2.581752e-002 7.710447e-002 1.787259e-002 5.048798e-002 3.388951e-003 2.152902e-002 1.147709e-002 7.180053e-003 5.117873e-003 5.970017e-003 6.481496e-003 7.630906e-003 6.086582e-003 3.233501e-003 6.793608e-003 1.044380e-002 4.670779e-003 2.484836e-003 5.693408e-003 2.542069e-003 3.551755e-003 1.980795e-003 
1 5.137762e-002 1.037310e-001 1.139916e-001 4.872710e-002 7.984660e-002 1.834924e-002 2.716708e-002 1.591270e-002 1.569170e-002 1.749582e-002 1.107475e-003 1.096380e-002 4.219069e-003 7.071786e-003 2.509785e-003 6.860468e-003 2.346999e-003 2.257448e-003 3.675365e-003 3.553479e-003 6.839356e-004 3.018197e-003 2.788195e-003 3.278319e-003 3.620697e-003 
1 2.970372e-002 1.207843e-001 1.209237e-001 4.043552e-002 4.800855e-002 1.887741e-002 3.208677e-002 3.253111e-003 1.379338e-002 1.384106e-002 5.697655e-003 1.109996e-002 7.445845e-003 9.944608e-003 5.707975e-003 4.831414e-003 5.599987e-003 2.599372e-003 2.091448e-003 3.118734e-003 5.952012e-003 2.485241e-003 2.513512e-003 5.124580e-003 1.363940e-003 
1 2.489226e-002 1.279757e-001 1.318967e-001 3.438215e-002 5.201723e-002 1.998653e-002 3.421988e-002 8.962265e-003 1.663817e-002 7.388823e-003 1.018761e-002 3.495362e-003 1.051986e-002 7.013475e-003 7.198922e-003 2.704425e-004 5.832109e-003 4.696233e-003 4.610975e-003 4.242764e-003 7.004481e-003 2.790674e-003 1.569411e-003 3.630059e-003 2.408254e-003 
1 7.876507e-003 1.370122e-001 1.322524e-001 2.847092e-002 5.423361e-002 7.634675e-003 2.248871e-002 1.430935e-002 1.695484e-002 2.855113e-003 7.443473e-003 5.266275e-003 9.815189e-003 2.528518e-003 8.298551e-003 5.666365e-003 2.078682e-003 2.889833e-003 4.626402e-003 2.048882e-003 1.653627e-003 2.936536e-003 1.997232e-003 2.325408e-003 4.714754e-004 
1 2.514473e-002 1.420381e-001 1.050927e-001 2.110092e-002 6.031268e-002 3.073148e-002 3.714109e-002 3.556041e-002 2.144878e-002 4.172617e-003 9.529353e-003 1.360550e-002 9.715084e-003 1.148895e-002 8.993310e-003 4.552621e-003 1.670162e-003 1.380845e-003 3.851272e-003 3.378453e-003 1.192626e-003 2.488107e-003 2.071049e-003 1.146154e-003 6.100124e-004 
1 4.674363e-002 1.331842e-001 1.147818e-001 3.340593e-002 4.662591e-002 6.701795e-002 5.149724e-002 2.746425e-002 2.578153e-002 7.715240e-003 9.014546e-003 1.023472e-002 9.388813e-003 5.758329e-003 4.590662e-003 7.832635e-003 4.475862e-003 2.087641e-003 1.548358e-003 6.665748e-003 1.770865e-003 8.595476e-004 2.208572e-003 3.538788e-003 2.709236e-003 
1 5.479673e-002 1.401873e-001 1.022996e-001 4.866581e-002 1.639685e-002 7.182973e-002 5.101100e-002 2.210183e-002 1.715886e-002 1.067117e-002 1.050871e-002 1.841456e-002 5.074296e-003 2.421449e-003 5.334338e-003 3.076059e-003 2.884451e-004 2.503722e-003 1.957688e-003 1.200924e-003 4.109459e-003 3.205135e-003 1.469870e-003 2.872140e-003 3.963796e-003 
1 3.196539e-002 1.199705e-001 5.717397e-002 3.888156e-002 8.824772e-002 5.713344e-002 5.442010e-002 3.998667e-002 2.553964e-003 1.425224e-002 1.318610e-002 1.171031e-002 1.370721e-002 7.496534e-003 1.333420e-003 2.685974e-003 1.174210e-003 2.950163e-003 2.619289e-003 8.074580e-003 9.495248e-004 8.973714e-004 5.009941e-003 3.072692e-003 1.653638e-003 
1 1.910335e-002 1.221787e-001 5.954052e-002 4.017512e-002 8.308172e-002 6.346138e-002 5.133850e-002 3.693967e-002 4.610742e-003 1.573926e-002 1.166269e-002 1.101144e-002 1.599902e-002 1.001293e-002 6.179071e-003 3.567504e-004 7.583365e-003 3.940896e-003 1.375077e-003 2.402636e-003 5.605105e-004 1.652240e-003 6.375650e-003 8.926387e-004 5.145919e-003 
1 2.308625e-002 1.337415e-001 5.689759e-002 4.849915e-002 8.534984e-002 4.179569e-002 4.572450e-002 4.117783e-002 1.493778e-002 1.352959e-002 2.204470e-003 6.685550e-003 1.364399e-002 1.300240e-002 2.044864e-003 5.495121e-003 6.184782e-003 2.106598e-003 2.178953e-003 3.006817e-003 1.130869e-003 3.103749e-003 4.362816e-003 1.232204e-003 1.060335e-003 
1 4.187781e-002 1.465382e-001 4.950843e-002 4.076531e-002 1.044207e-001 5.333940e-003 9.105945e-003 4.130779e-002 1.791859e-002 2.348273e-003 7.046757e-003 1.121629e-002 5.849158e-003 2.914404e-003 8.504611e-003 9.616996e-003 3.894498e-003 3.579334e-003 1.960105e-003 2.919532e-003 4.174102e-003 1.767343e-003 1.560143e-003 2.665931e-003 1.212114e-003 
1 1.629442e-002 1.412010e-001 5.488871e-002 4.179499e-002 8.649102e-002 5.116084e-002 2.722428e-002 4.461738e-002 1.028381e-002 1.149665e-002 3.661246e-003 1.201901e-003 1.729017e-002 7.537391e-003 5.171494e-003 4.450349e-003 3.902889e-003 2.640495e-003 4.228282e-003 1.574560e-003 3.388880e-003 1.783764e-003 3.160803e-003 2.457951e-003 3.132542e-003 
1 3.868709e-002 1.290918e-001 7.454388e-002 3.965377e-002 1.259278e-002 7.518159e-002 2.638340e-002 1.545430e-002 1.765396e-002 1.549117e-002 1.940768e-002 1.344625e-002 3.927394e-003 9.700678e-003 3.560771e-003 5.661472e-003 3.727110e-003 3.796637e-003 2.026347e-003 4.508475e-003 1.942279e-003 2.270132e-003 4.570302e-003 2.239470e-003 1.913194e-003 
1 2.325064e-002 1.498190e-001 6.744935e-002 2.136827e-003 3.908214e-002 7.727893e-002 3.899021e-002 1.184912e-002 1.959153e-002 1.588549e-002 2.056112e-002 1.220381e-002 4.832613e-003 7.826514e-003 4.633267e-003 2.519262e-003 2.438068e-003 1.655018e-003 4.676243e-003 2.537487e-003 1.157662e-003 3.294567e-003 3.687700e-003 9.457075e-004 2.130294e-003 
1 5.405983e-002 1.461721e-001 5.733107e-002 3.520870e-002 1.877948e-002 9.941035e-002 1.445518e-002 1.510007e-002 2.285991e-002 2.576938e-002 9.786545e-003 6.940221e-003 2.553034e-003 5.344602e-003 1.482795e-003 1.535389e-003 9.067754e-004 2.619997e-003 3.706258e-003 3.906512e-003 5.783403e-003 2.673500e-003 2.055665e-003 1.452135e-003 2.738740e-003 
1 5.231607e-002 1.421480e-001 5.970018e-002 2.730589e-002 1.663671e-002 1.138111e-001 2.355179e-002 6.081985e-003 2.627351e-002 1.991022e-002 9.940076e-003 1.192015e-002 4.117338e-004 4.007673e-003 3.990919e-003 1.361526e-003 1.732735e-003 2.232131e-003 2.410110e-003 1.775945e-003 7.763901e-003 2.892390e-003 6.629955e-003 2.821739e-003 1.896470e-003 
1 5.411584e-002 1.406421e-001 5.834493e-002 8.520911e-003 2.665328e-002 1.107962e-001 2.141534e-002 5.184773e-003 2.360791e-002 1.813372e-002 9.880308e-003 7.441348e-003 7.540040e-003 4.500453e-003 5.730414e-003 1.229363e-003 2.864997e-003 2.059971e-003 4.859801e-003 3.991444e-003 5.862960e-003 1.851752e-003 2.891517e-003 1.751823e-003 3.859984e-004 
1 4.439398e-002 1.393543e-001 3.081216e-002 4.375881e-002 7.515751e-002 8.176839e-002 6.060110e-002 1.286153e-002 2.172123e-002 1.846623e-002 1.039258e-002 1.523841e-002 6.044811e-003 1.119180e-002 4.096997e-003 3.349178e-003 8.439989e-003 3.717136e-003 6.124073e-003 1.063923e-003 6.881629e-003 2.839594e-003 4.807875e-003 4.470629e-003 1.517665e-003 
1 7.163540e-002 1.612532e-001 7.300411e-002 1.103226e-002 5.971990e-002 6.481908e-002 4.371721e-002 4.931136e-002 4.282056e-002 1.663535e-002 1.387561e-002 4.189536e-003 6.338759e-003 7.809277e-003 1.072087e-002 5.853580e-003 3.371755e-003 8.702568e-003 4.910920e-003 4.607347e-003 5.361609e-003 2.836284e-003 9.104409e-003 1.106276e-003 1.467859e-003 
1 1.084851e-001 1.560093e-001 1.002028e-001 5.015841e-002 5.105070e-002 1.180245e-002 7.269216e-002 6.579707e-002 3.111135e-002 8.047642e-003 1.015853e-002 1.017242e-002 1.143426e-002 4.483338e-003 7.538650e-003 8.918855e-003 1.368015e-003 4.085713e-003 5.872681e-004 5.540841e-003 5.410617e-003 4.058690e-003 5.434257e-003 2.844765e-003 6.651405e-003 
1 7.217808e-002 1.497528e-001 5.145348e-002 2.357512e-002 4.900905e-002 5.392539e-002 4.594031e-002 6.402970e-002 5.223495e-002 3.630459e-003 8.770845e-003 6.453481e-003 5.838651e-003 1.325181e-002 4.173792e-003 1.038623e-002 6.839313e-003 4.602335e-003 8.228852e-004 4.387548e-003 4.028726e-003 4.528030e-003 4.033268e-003 3.699412e-003 8.566718e-004 
1 8.689185e-002 1.454295e-001 5.489211e-002 3.841193e-002 4.560127e-002 4.453036e-002 6.225922e-002 7.003342e-002 4.060412e-002 1.059627e-002 1.399940e-002 2.859079e-003 3.844109e-003 8.338628e-003 9.047179e-003 3.303568e-003 5.732658e-003 1.385686e-003 3.036442e-003 4.372473e-003 3.024524e-003 6.037299e-003 3.351615e-003 3.977987e-003 3.568163e-003 
1 5.128627e-002 1.397550e-001 2.535703e-002 2.179257e-002 7.601174e-002 6.297216e-002 3.618865e-002 4.522581e-002 5.031053e-002 2.380160e-002 7.432729e-003 1.775726e-002 9.293126e-003 6.733593e-003 3.427036e-003 1.042364e-002 5.399351e-003 4.839289e-003 4.330834e-003 4.104895e-003 2.359444e-003 4.065866e-003 3.934747e-003 2.611071e-003 3.181121e-003 
1 3.489428e-002 1.484846e-001 3.234477e-002 6.254866e-002 5.662138e-002 4.141785e-002 5.254118e-002 1.561542e-002 1.451889e-002 1.746903e-002 3.853502e-003 3.436695e-003 6.629975e-003 4.370708e-003 8.282197e-003 8.319842e-003 7.976670e-003 7.131203e-003 1.811459e-003 9.074849e-004 2.310140e-003 8.026884e-004 1.451473e-003 2.992775e-003 1.521997e-003 
1 4.215495e-002 1.322083e-001 4.652518e-002 7.938925e-002 6.461855e-002 3.536826e-002 4.621394e-002 1.626872e-002 1.918901e-002 1.565124e-002 1.726442e-003 8.990745e-003 2.122724e-003 7.526046e-003 4.403883e-003 5.833041e-003 7.925956e-003 7.457688e-003 4.787290e-003 2.882011e-003 1.429163e-003 1.303127e-003 1.027234e-003 6.976833e-004 4.676909e-003 
1 5.752711e-002 1.509195e-001 1.831072e-002 9.061391e-002 3.117713e-002 5.819046e-002 3.855538e-002 2.041146e-002 1.755809e-002 1.713328e-002 9.805914e-003 1.036100e-002 5.509253e-003 5.097974e-003 8.951266e-003 3.898241e-003 1.045648e-002 1.174674e-003 2.085063e-004 3.705621e-003 3.091129e-003 5.334080e-003 2.295889e-003 4.585120e-003 1.873113e-003 
1 4.976066e-002 1.534159e-001 3.143147e-002 8.703652e-002 1.650000e-002 5.045650e-002 4.605003e-002 1.217014e-002 1.732293e-002 1.564371e-002 1.239949e-002 1.425689e-002 7.706942e-003 1.047711e-002 6.389511e-003 8.575555e-003 4.566405e-003 1.378086e-003 5.131114e-003 2.514333e-003 1.286909e-003 4.760358e-003 3.514216e-003 2.103080e-003 6.390053e-004 
1 9.053473e-002 1.486870e-001 6.188362e-002 6.140689e-002 5.690087e-002 4.296689e-002 4.024199e-002 6.714102e-002 2.346067e-002 2.533076e-002 7.628690e-003 1.270566e-002 9.964939e-003 1.360674e-003 9.930276e-003 6.390240e-003 7.825285e-003 1.022550e-003 3.799476e-004 2.713675e-003 3.059029e-003 3.558097e-003 1.221779e-003 3.662008e-003 3.663481e-003 
1 7.702960e-002 1.385151e-001 6.183345e-002 6.444551e-002 5.688787e-002 9.787857e-002 2.341709e-002 3.668715e-002 2.083029e-002 1.818371e-002 7.401139e-003 6.159891e-003 4.886797e-003 4.982121e-003 6.064621e-003 2.078876e-003 4.824380e-003 6.251595e-003 3.264875e-003 7.263066e-003 6.417418e-003 3.425113e-003 2.399993e-003 1.897260e-003 1.056731e-003 
1 7.735585e-002 1.477032e-001 5.316976e-002 7.983359e-002 3.859711e-002 7.347333e-002 1.228956e-002 4.635563e-002 3.492399e-002 1.693442e-002 2.056404e-002 1.248753e-002 7.942918e-003 5.698655e-003 7.565232e-004 1.027046e-002 8.752674e-003 6.707998e-003 6.381727e-003 7.563190e-004 2.844085e-003 4.022447e-003 1.702513e-003 2.910772e-004 2.747575e-003 
1 8.672656e-002 1.477487e-001 6.408694e-002 6.210961e-002 3.813401e-002 7.049382e-002 3.552109e-002 6.010225e-002 3.985559e-002 1.920574e-002 1.379484e-002 1.214252e-002 1.222686e-003 9.685604e-003 7.961305e-003 6.750898e-003 9.867976e-003 5.961745e-003 5.130593e-004 3.339469e-003 2.014563e-003 7.004330e-003 1.898445e-003 2.061672e-003 3.997141e-003 
1 7.120123e-002 1.474757e-001 6.249883e-002 6.246045e-002 4.451713e-002 8.453696e-002 2.095111e-002 5.180577e-002 4.048422e-002 7.025695e-003 8.617892e-003 6.889267e-003 6.677389e-003 7.980191e-003 4.322932e-003 6.829142e-003 1.997649e-003 7.407457e-003 3.342765e-003 3.180311e-003 5.584699e-003 4.176707e-003 9.464493e-004 4.001948e-003 5.321388e-003 
1 3.565330e-002 1.562166e-001 2.372241e-002 8.276656e-002 5.854864e-002 6.771825e-002 2.580263e-002 2.330021e-002 2.753495e-002 9.338048e-003 1.351900e-002 3.421512e-003 1.128367e-002 2.446708e-003 4.416926e-003 1.086279e-002 2.466349e-003 5.750360e-003 8.977129e-004 2.757774e-003 3.607101e-003 3.461256e-003 5.016990e-003 4.381483e-003 2.912665e-003 
1 2.930277e-002 1.498550e-001 3.209396e-002 8.573818e-002 8.576092e-002 3.300698e-002 3.265086e-002 2.459872e-002 8.840233e-003 1.859336e-002 4.355733e-003 4.599125e-003 2.923699e-003 2.506416e-003 3.515234e-003 3.039625e-003 3.661495e-003 3.816638e-003 7.652678e-003 4.082526e-003 1.907253e-003 4.210124e-003 1.871541e-003 2.727864e-003 2.146827e-003 
1 5.317337e-002 1.595005e-001 3.122171e-002 9.946310e-002 4.055748e-002 6.057865e-002 2.657712e-002 1.470180e-002 2.730012e-002 7.546752e-003 1.636861e-002 2.887188e-003 1.060234e-002 1.429577e-003 8.188676e-003 3.238345e-003 3.973783e-003 2.320308e-003 5.650630e-003 1.722998e-003 3.286168e-003 6.078301e-003 7.746610e-003 2.354304e-003 5.846860e-004 
1 6.673318e-002 1.766118e-001 4.626048e-002 5.918174e-002 2.635750e-003 8.378627e-002 3.504854e-002 1.443176e-002 1.853703e-002 1.635569e-002 2.086640e-002 1.430453e-002 3.041796e-003 1.864947e-003 6.151369e-003 4.745879e-003 3.724582e-003 1.637363e-003 5.595974e-003 3.396632e-003 6.199567e-003 2.223256e-003 1.418898e-003 4.903161e-003 2.427316e-003 
1 4.763637e-002 1.670804e-001 3.355997e-002 7.346618e-002 8.128862e-002 2.037210e-002 1.153469e-002 3.543906e-002 1.424785e-002 2.227022e-003 1.406059e-002 7.489995e-003 2.721811e-003 5.891326e-003 3.048587e-003 1.904341e-003 4.078599e-003 4.136559e-003 3.709185e-003 2.517972e-003 3.854812e-003 1.498425e-003 7.449732e-003 2.553182e-003 1.829243e-003 
1 3.386710e-002 1.789673e-001 6.425927e-002 1.501041e-002 6.274446e-002 2.918355e-002 2.156016e-002 3.379625e-002 9.961483e-003 6.478144e-003 1.566272e-002 1.810436e-003 6.785305e-003 8.350529e-003 8.443653e-003 1.079645e-002 2.551020e-003 5.619889e-003 2.328745e-003 1.310287e-003 1.352198e-003 3.455519e-003 1.903114e-003 4.442954e-003 2.441456e-004 
1 2.421729e-002 1.706532e-001 5.877558e-002 2.211481e-002 6.608336e-003 2.985355e-002 1.469191e-002 2.734792e-002 2.480051e-002 1.845992e-002 9.791235e-003 1.079450e-002 2.251338e-003 1.450776e-003 1.871528e-003 4.452170e-003 1.908548e-003 5.049705e-003 1.507620e-003 2.434043e-003 3.485202e-003 2.764717e-003 2.763054e-003 2.179078e-003 2.701368e-003 
1 4.622529e-002 1.455036e-001 8.545854e-002 5.565824e-002 1.485333e-002 5.720069e-002 1.016720e-002 2.190692e-002 1.461372e-002 2.513835e-003 1.179944e-002 6.509908e-004 4.308866e-003 3.920915e-003 3.621641e-003 4.188109e-003 1.869612e-003 3.092387e-003 3.759142e-003 1.740059e-003 4.398210e-003 1.245641e-003 3.360195e-003 8.532274e-004 1.031470e-003 
1 7.478928e-003 1.767421e-001 2.460856e-002 3.080697e-002 4.892782e-002 2.561099e-002 1.844823e-002 1.622895e-002 1.022245e-002 4.808546e-003 3.057371e-003 4.970309e-003 4.929457e-003 3.062064e-003 3.925152e-003 2.935573e-003 5.291694e-003 2.190229e-003 2.791225e-003 5.175033e-003 4.412550e-004 1.359208e-003 2.775023e-003 2.503554e-003 8.025579e-004 
1 1.692669e-002 1.824752e-001 5.200081e-002 1.242591e-002 5.903630e-002 2.044673e-002 2.509942e-002 1.007998e-002 1.028895e-002 2.317611e-003 2.684646e-003 4.951447e-003 4.627617e-003 6.098327e-003 3.105713e-003 4.119476e-003 3.309372e-003 1.895547e-003 3.290156e-003 1.503416e-003 2.391451e-003 3.625010e-003 8.765936e-005 2.859821e-003 8.182444e-004 
1 1.163077e-002 1.930795e-001 5.656129e-002 2.418815e-002 4.188194e-002 3.049268e-002 1.992261e-002 1.056095e-002 1.145065e-002 5.968016e-003 6.333756e-003 4.798798e-003 3.656897e-003 1.808662e-003 4.911905e-003 4.314289e-003 4.374051e-003 1.986062e-003 1.626298e-003 1.637745e-003 2.780864e-003 5.726265e-003 3.444058e-003 2.212639e-003 1.703473e-003 
1 5.574708e-003 1.829659e-001 7.358917e-002 1.827191e-002 5.167729e-002 2.553884e-002 1.766711e-002 8.264882e-003 7.517952e-003 3.104482e-003 3.145419e-003 7.841642e-003 6.031810e-003 4.058006e-003 4.134598e-003 5.802379e-004 3.384594e-003 7.107288e-004 4.231666e-003 2.949971e-003 2.114729e-003 1.303102e-003 3.583235e-003 1.872791e-003 1.712882e-003 
1 1.053570e-002 1.950471e-001 8.927405e-002 1.758575e-002 4.583270e-002 2.965526e-002 1.214654e-002 1.037417e-002 1.615814e-002 5.876630e-003 4.837111e-003 2.170930e-003 1.682120e-003 4.883129e-003 4.565497e-003 7.070171e-004 3.138911e-003 2.887488e-003 1.864585e-003 3.727773e-003 2.861076e-003 1.301949e-003 1.942445e-003 2.771359e-003 5.470798e-003 
1 9.448919e-003 1.788936e-001 7.655807e-002 2.244068e-002 5.365520e-002 2.513034e-002 1.060118e-002 9.191508e-003 9.301831e-004 1.392085e-002 9.856378e-003 1.089163e-002 3.429159e-003 8.250871e-003 1.087393e-003 6.189497e-004 6.762653e-003 3.375554e-003 1.450579e-003 4.739602e-003 3.212884e-003 7.091543e-004 3.112292e-003 9.555803e-004 7.197065e-004 
1 9.631060e-003 1.921015e-001 6.605174e-002 3.098380e-002 5.205697e-002 3.313461e-002 7.446405e-003 7.662141e-003 1.631252e-003 9.758034e-003 1.222786e-002 9.500376e-003 1.109952e-002 5.166668e-003 2.153784e-003 4.717067e-003 3.035304e-003 8.117252e-003 3.132951e-003 2.828846e-003 3.152390e-003 3.667886e-003 1.444601e-003 1.926463e-003 2.322619e-003 
1 2.438163e-002 1.979985e-001 6.696194e-002 3.746725e-002 2.164675e-002 2.612535e-002 1.109822e-002 7.285762e-003 1.116941e-002 7.609546e-003 6.000194e-004 1.009447e-003 8.758943e-003 4.937880e-003 8.066415e-004 1.019254e-003 4.099705e-003 1.524028e-003 3.035532e-003 3.893749e-003 5.328775e-003 5.983064e-003 1.125135e-003 3.281248e-003 3.296113e-003 
1 9.070291e-003 1.757793e-001 9.631613e-002 2.045021e-002 3.730481e-002 3.283570e-002 2.053337e-002 5.102877e-003 1.109093e-002 3.078366e-003 7.916091e-003 7.601408e-003 5.897555e-003 5.066155e-004 6.597900e-004 1.329493e-003 2.250311e-003 3.041996e-003 1.786707e-003 2.828308e-003 3.848231e-003 2.806725e-003 1.261903e-003 2.730048e-003 6.686175e-004 
1 7.750270e-003 1.743274e-001 9.662479e-002 1.528553e-002 3.222988e-002 3.412465e-002 3.031211e-002 1.922566e-003 9.144648e-003 8.410305e-003 2.396152e-003 6.441325e-003 6.590612e-003 2.355508e-003 3.398844e-003 2.365940e-003 4.145345e-003 3.575796e-003 2.627203e-003 8.618586e-004 3.225093e-003 1.771979e-003 1.836134e-003 1.145114e-003 1.552482e-003 
1 1.856726e-002 1.806638e-001 1.001478e-001 2.023803e-002 2.720662e-002 2.939943e-002 2.571996e-002 2.996966e-003 1.408324e-002 1.313325e-002 3.747199e-004 9.458564e-003 1.476335e-003 1.633232e-003 2.693431e-003 1.834519e-003 5.116411e-003 2.802616e-003 4.305122e-003 4.931958e-004 2.273995e-003 1.732393e-003 7.456893e-004 6.553132e-004 3.440425e-004 
1 2.226577e-002 1.948501e-001 8.801533e-002 2.011602e-002 2.155591e-002 2.640290e-002 2.543082e-002 4.032292e-003 1.251761e-002 8.924042e-003 2.337606e-003 4.238050e-003 4.924829e-003 2.638821e-003 2.821388e-003 3.863138e-003 3.007186e-003 2.343391e-003 2.937689e-003 2.356494e-003 5.581280e-004 6.376137e-004 1.432897e-004 1.418556e-003 5.678552e-004 
1 1.812099e-002 2.052229e-001 7.927665e-002 3.102793e-002 1.867827e-002 2.517335e-002 1.676098e-002 8.320905e-003 1.443799e-002 8.994030e-003 4.157831e-003 4.345071e-003 6.463685e-003 9.030853e-004 9.292670e-004 2.153960e-003 2.088380e-003 1.224639e-003 4.966605e-004 5.989760e-004 1.298688e-003 1.828969e-003 1.509020e-003 1.637552e-003 1.235052e-003 
1 2.404410e-002 2.043729e-001 7.106367e-002 3.966918e-002 1.937147e-002 2.133235e-002 1.508841e-002 9.270521e-003 1.401088e-002 8.616153e-003 4.292408e-003 4.470468e-003 1.764613e-003 2.164487e-003 2.187472e-003 4.144715e-003 3.785985e-003 1.490729e-003 2.875050e-003 2.420613e-003 9.954493e-004 1.047025e-003 2.332037e-003 3.867486e-003 1.491259e-003 
1 2.612036e-002 2.117255e-001 7.132384e-002 3.760609e-002 2.075765e-002 2.431659e-002 1.598831e-002 8.135966e-003 1.164959e-002 6.751825e-003 5.662989e-003 1.836259e-003 2.507669e-004 4.016178e-003 4.256445e-003 2.007416e-003 6.665055e-004 3.031834e-003 6.099069e-004 4.047896e-003 1.705295e-003 8.612685e-004 2.368674e-003 3.271817e-003 5.535667e-004 
1 2.357261e-002 2.147107e-001 7.533954e-002 3.105286e-002 2.063664e-002 2.466024e-002 1.557993e-002 5.149871e-003 1.203253e-002 5.094833e-003 6.667322e-003 1.259252e-003 6.691109e-004 6.616891e-004 4.072292e-003 9.704401e-004 3.327273e-003 4.545637e-003 3.999929e-003 2.826207e-003 2.839538e-003 1.851638e-003 1.923392e-003 2.348275e-004 4.655244e-004 
1 6.529904e-003 1.681305e-001 7.101550e-002 2.430278e-002 5.483507e-002 2.708313e-002 1.538127e-002 3.304057e-003 3.827142e-003 7.972129e-003 5.252015e-003 1.035485e-002 1.030272e-002 3.552448e-003 4.902197e-003 3.228561e-003 6.389640e-003 2.666200e-003 2.347774e-003 3.435324e-003 3.756371e-003 9.659158e-004 2.909757e-003 2.351650e-003 2.275677e-003 
1 1.352457e-002 1.844144e-001 6.745860e-002 3.183384e-002 5.353136e-002 2.418410e-002 2.714594e-003 5.885393e-003 1.170444e-002 1.146942e-002 8.621339e-003 6.964101e-003 6.765106e-003 5.453744e-003 2.729335e-003 1.157505e-003 1.919465e-003 3.025624e-003 1.056462e-003 1.600494e-003 1.624589e-003 4.495996e-003 4.413497e-003 2.378557e-004 3.116884e-003 
1 3.042285e-003 1.706979e-001 7.084697e-002 1.768393e-002 5.881671e-002 2.855715e-002 1.185701e-002 6.649629e-003 4.060737e-003 9.325292e-003 5.499593e-003 6.097309e-003 4.407061e-003 2.440803e-003 4.410001e-003 2.667596e-003 4.377676e-003 2.724790e-003 3.580792e-003 2.506913e-003 1.500906e-003 1.394777e-004 2.419583e-003 4.993301e-004 8.204387e-004 
1 5.381630e-003 1.729141e-001 6.260808e-002 1.986981e-002 5.004699e-002 3.212735e-002 1.282919e-002 6.481432e-003 5.810211e-003 4.427210e-003 3.140911e-003 7.741411e-003 1.012988e-002 1.361904e-003 5.361879e-003 5.582317e-003 2.246732e-003 2.408077e-003 1.157489e-003 2.726353e-003 4.099713e-004 7.980694e-004 1.109499e-003 1.254044e-003 2.102960e-003 
1 5.657858e-004 1.763484e-001 6.432961e-002 2.916058e-002 6.030586e-002 2.922688e-002 6.959842e-003 5.804693e-003 1.387059e-003 7.483451e-003 5.024477e-003 1.060802e-002 7.283717e-003 5.258496e-003 3.125634e-003 2.757578e-003 1.436585e-003 1.564500e-003 3.715122e-003 3.676198e-003 8.788065e-004 2.114301e-003 1.893185e-003 2.968482e-003 1.140703e-003 
1 2.111334e-002 1.893276e-001 6.003116e-002 2.637032e-002 3.784517e-002 3.371738e-002 1.466048e-002 1.018338e-002 1.543832e-002 2.620951e-003 6.171944e-003 3.967890e-003 7.770629e-003 3.213747e-003 2.190307e-003 2.664031e-003 6.190869e-003 3.613158e-003 2.372447e-003 7.796807e-004 3.098028e-003 1.783122e-003 5.677282e-004 1.401824e-003 2.044387e-003 
1 6.037610e-003 1.813926e-001 6.944728e-002 2.214265e-002 5.761935e-002 2.812235e-002 1.267404e-002 9.929593e-003 9.154606e-003 2.197634e-003 9.864009e-003 6.444696e-003 7.671448e-003 2.279791e-003 6.025924e-003 2.442568e-003 3.166014e-003 5.636538e-003 1.895307e-004 5.259521e-003 3.827260e-003 1.813213e-003 1.100237e-003 2.763890e-003 2.131072e-003 
1 2.447839e-002 1.883520e-001 5.609852e-002 3.881335e-002 3.822242e-002 3.442570e-002 1.291059e-002 1.049750e-002 5.775389e-003 4.976798e-003 7.402760e-003 2.536883e-003 1.076666e-002 3.675655e-003 4.001446e-003 3.460206e-003 1.238502e-003 3.611060e-003 4.663948e-003 1.679939e-003 2.387533e-003 2.165065e-003 2.653793e-003 3.512577e-003 6.309097e-004 
1 1.716165e-002 1.949449e-001 5.937623e-002 3.400115e-002 4.113313e-002 2.882043e-002 1.125740e-002 1.059583e-002 7.215074e-003 1.967692e-003 8.529491e-003 1.292229e-003 3.429868e-003 3.285387e-003 3.195615e-004 4.294252e-003 2.720168e-004 1.209824e-003 4.379001e-003 3.624426e-003 5.036158e-003 1.753598e-003 2.005997e-003 1.972694e-003 1.501538e-003 
1 1.699942e-002 1.759937e-001 7.188222e-002 3.831135e-002 4.756612e-002 2.845986e-002 8.005923e-003 7.277243e-003 6.934540e-003 8.250734e-003 1.380971e-002 7.284145e-003 1.421507e-002 2.064247e-003 2.746908e-003 9.826031e-004 3.392237e-004 2.076285e-003 3.365264e-003 6.136914e-003 3.443823e-003 1.861690e-003 3.001915e-003 2.757347e-003 1.641962e-003 
1 1.709682e-003 1.788322e-001 7.448785e-002 2.626575e-002 5.397494e-002 2.999203e-002 1.445669e-002 1.083478e-002 3.887324e-003 6.474153e-003 2.922546e-003 9.748524e-003 5.037578e-003 4.080860e-003 3.814431e-003 7.437692e-003 1.879962e-003 3.469136e-003 5.392115e-003 3.596827e-003 1.241201e-003 2.327563e-003 4.247020e-004 1.305567e-003 1.034678e-003 
1 3.243398e-002 2.029216e-001 6.675236e-002 3.013263e-002 2.516604e-002 2.962578e-002 2.138030e-002 1.281496e-002 4.910991e-003 6.803495e-003 7.081510e-003 3.350910e-004 8.849659e-003 2.653638e-003 1.130439e-003 7.820551e-003 6.810756e-003 3.483440e-003 4.140848e-003 3.264335e-004 2.140664e-003 1.226987e-003 1.938116e-003 2.783929e-004 7.103362e-004 
1 2.297692e-002 1.957593e-001 5.678371e-002 3.342815e-002 3.193548e-002 1.987237e-002 1.527144e-002 1.536896e-002 7.789040e-003 5.933185e-003 2.549842e-003 3.089212e-003 3.935004e-003 1.125199e-003 3.850243e-003 4.942230e-004 1.089755e-003 1.650236e-003 3.514959e-003 1.861116e-003 2.184646e-003 1.154993e-003 1.307611e-003 9.288389e-004 1.338773e-003 
1 4.025364e-002 1.975195e-001 6.761030e-002 4.430580e-002 2.150641e-002 2.284045e-002 1.100552e-002 1.154852e-002 2.253453e-003 7.978747e-003 6.816827e-003 4.489014e-003 9.097639e-003 1.306911e-003 1.561853e-003 1.463124e-003 5.745536e-003 1.064454e-003 4.608919e-003 3.589596e-003 4.153833e-003 2.904029e-003 2.272334e-003 2.396920e-003 2.570204e-003 
1 6.339949e-003 1.728527e-001 8.822432e-002 2.694470e-002 3.604898e-002 2.514246e-002 8.831989e-003 5.358870e-003 7.219071e-003 9.485383e-003 1.425932e-002 1.449297e-003 1.051322e-002 1.840582e-003 4.494750e-003 9.527558e-003 2.939596e-003 5.859318e-003 2.917091e-003 3.865767e-003 6.158423e-004 2.268754e-003 2.698476e-003 3.161357e-003 6.351881e-004 
1 9.268882e-003 1.662261e-001 7.610195e-002 4.319222e-002 4.639213e-002 3.232073e-002 1.371248e-002 1.279056e-002 4.621440e-003 1.857150e-003 1.023173e-002 7.344541e-003 5.947412e-003 1.352025e-003 7.522325e-003 2.767040e-003 9.639150e-004 4.186945e-003 3.406881e-003 1.875422e-003 4.809447e-003 7.197340e-004 4.763524e-003 9.796476e-004 2.640467e-003 
1 6.960413e-003 1.605054e-001 8.776860e-002 2.394564e-002 5.491658e-002 2.778742e-002 2.201532e-002 5.199142e-003 6.127675e-003 1.357009e-003 8.772359e-003 6.645349e-003 6.178353e-003 4.412963e-003 2.611715e-003 1.547770e-003 1.697675e-003 3.317696e-003 2.045944e-003 6.533274e-004 1.449964e-003 1.417344e-003 1.552624e-003 1.114480e-003 2.756922e-003 
1 3.762141e-002 1.960692e-001 7.648561e-002 3.323878e-002 2.255009e-002 2.527597e-002 1.699070e-002 2.049952e-002 1.225372e-002 9.957041e-003 3.437403e-003 5.440413e-003 5.145385e-003 8.404286e-004 3.466580e-003 2.321881e-003 1.516797e-003 3.016656e-003 3.432734e-003 4.179777e-003 3.128774e-003 3.874285e-003 3.274749e-003 7.762090e-004 3.223036e-003 
1 4.677165e-002 1.990245e-001 7.932976e-002 3.781280e-002 1.380996e-002 3.039292e-002 1.715872e-002 1.167967e-002 1.364515e-002 1.555393e-002 7.346023e-003 6.252520e-003 6.994384e-003 1.963915e-003 5.222865e-003 4.589426e-003 1.602532e-003 5.627398e-003 1.933478e-003 2.272161e-003 3.561094e-004 4.391851e-003 3.260470e-003 3.458177e-003 2.139389e-003 
1 3.924999e-002 2.080575e-001 6.513563e-002 3.110925e-002 1.268440e-002 2.222126e-002 1.533374e-002 1.328053e-002 1.237040e-002 1.365562e-002 3.823448e-003 1.021113e-002 4.620410e-003 1.828185e-003 1.740024e-003 5.853175e-004 9.160688e-004 2.950796e-003 2.373911e-003 2.433681e-003 1.587625e-003 2.726377e-004 1.693907e-003 2.440529e-003 3.831973e-003 
1 2.114710e-002 2.070466e-001 6.070370e-002 3.707579e-002 2.708411e-002 2.234803e-002 1.621073e-002 1.986939e-002 8.753851e-003 5.773558e-003 6.474634e-004 8.685643e-003 6.821349e-003 1.168939e-003 1.524399e-003 3.349443e-003 1.969558e-003 2.463786e-003 1.972192e-004 1.050113e-004 3.042503e-003 5.447626e-004 1.310467e-003 1.296937e-003 1.244108e-003 
1 2.835303e-002 1.976888e-001 5.920206e-002 3.925470e-002 2.486705e-002 3.078190e-002 1.546991e-002 1.500884e-002 1.373622e-002 1.067268e-002 9.432505e-003 7.818221e-003 9.604740e-003 5.693207e-004 7.236955e-003 4.252384e-003 8.491908e-004 6.030737e-003 1.216526e-003 2.571891e-003 3.596180e-003 1.073378e-003 1.563294e-003 6.032840e-004 4.794036e-004 
1 2.071150e-002 1.981783e-001 6.451936e-002 3.396091e-002 2.979907e-002 2.418832e-002 2.144025e-002 8.190470e-003 8.709276e-003 7.914198e-003 6.366065e-003 4.718274e-003 8.470453e-003 7.161310e-003 3.168439e-003 3.067135e-003 2.688694e-003 2.189774e-004 2.266337e-003 2.530309e-003 2.514743e-003 1.198660e-003 3.333345e-003 1.410957e-003 8.126817e-004 
1 1.817423e-002 1.728535e-001 9.220238e-002 2.820208e-002 4.169891e-002 3.186105e-002 1.484522e-002 1.327052e-002 4.250701e-003 3.738974e-003 9.457851e-003 3.872980e-003 8.691173e-003 1.983520e-003 1.027166e-003 1.031641e-003 4.399258e-003 3.116704e-003 2.728979e-003 3.573079e-003 1.258810e-003 9.093888e-004 2.932390e-004 1.508946e-003 3.407437e-004 
1 2.162625e-002 1.847049e-001 8.029183e-002 3.636898e-002 3.166891e-002 3.200021e-002 1.198345e-002 6.228809e-003 1.909645e-003 6.318201e-003 1.147779e-002 5.476008e-003 7.445538e-003 3.688258e-003 3.144710e-003 2.107501e-003 5.591484e-003 3.472530e-003 5.130122e-003 3.036199e-003 3.260248e-003 2.585359e-003 1.201016e-004 1.632875e-003 7.670687e-004 
1 1.951506e-002 1.601411e-001 1.187668e-001 1.118939e-002 3.740960e-002 2.991904e-002 1.799864e-002 3.184119e-003 7.830020e-004 1.252810e-002 4.482690e-003 2.898483e-003 4.866068e-003 6.799906e-003 4.423260e-003 2.627925e-003 2.385800e-003 1.568208e-003 7.183586e-003 9.571635e-004 2.788971e-003 2.541931e-003 2.274383e-003 2.978054e-003 2.989926e-003 
1 2.419186e-002 1.520397e-001 1.076207e-001 3.345211e-002 2.984754e-002 3.097771e-002 1.497458e-002 6.885787e-003 7.664599e-003 4.399705e-003 3.282000e-003 4.563350e-003 1.183756e-002 3.574616e-003 7.947734e-003 5.945888e-003 4.104550e-003 2.392952e-003 2.545637e-003 1.439416e-003 8.690685e-004 3.265274e-003 3.192660e-003 1.294166e-003 1.301804e-003 
1 1.611274e-002 1.445877e-001 1.244713e-001 5.132900e-002 3.778801e-002 3.113523e-002 1.024150e-002 8.495858e-003 1.627683e-002 1.327733e-003 9.438309e-003 8.302428e-004 4.555914e-003 2.834109e-003 6.062331e-003 2.704369e-003 4.490861e-003 2.773626e-003 5.498401e-003 1.912402e-003 2.706588e-003 2.393895e-003 1.101395e-003 1.620454e-003 8.931402e-004 
1 1.954369e-002 1.281809e-001 1.445220e-001 3.356395e-002 3.785598e-002 2.739725e-002 1.170471e-002 3.997115e-003 1.640608e-002 1.070634e-002 4.282973e-003 4.231851e-003 1.256715e-003 5.431300e-003 4.719709e-003 2.932637e-003 2.449809e-003 3.584712e-003 1.386245e-003 3.282467e-003 5.039831e-004 1.746164e-003 1.768478e-003 3.834399e-004 2.738488e-003 
1 2.173055e-002 1.273242e-001 1.413049e-001 4.431330e-002 3.127618e-002 2.584452e-002 5.228883e-003 1.715453e-003 1.860074e-002 9.207280e-003 6.934755e-003 6.188111e-003 1.809914e-003 5.744501e-003 1.887348e-003 1.443740e-003 3.313432e-003 3.711526e-003 3.540518e-003 4.423628e-003 1.947428e-003 4.209889e-003 3.124110e-003 3.459612e-003 1.718674e-003 
1 5.246988e-003 1.033433e-001 1.460895e-001 4.148532e-002 4.128318e-002 1.877335e-002 4.055781e-003 5.624009e-003 1.040142e-002 3.566303e-003 1.048754e-002 7.142712e-003 7.976581e-003 7.379029e-003 1.974289e-003 2.023777e-003 2.703281e-003 3.969579e-003 3.028008e-003 3.361568e-003 2.343254e-003 2.885084e-003 1.657211e-003 1.498041e-003 3.761875e-004 
1 3.252891e-003 1.037799e-001 1.484129e-001 3.855481e-002 4.222842e-002 1.738270e-002 2.796992e-003 8.797213e-003 9.605344e-003 3.603525e-003 1.066325e-002 5.023423e-003 6.736447e-003 8.094963e-003 2.083552e-003 7.024283e-004 4.647601e-003 2.354059e-003 9.507949e-004 2.746034e-003 6.490258e-004 6.775679e-004 2.888089e-003 8.001411e-004 2.132109e-003 
1 7.181463e-003 1.114046e-001 1.453873e-001 4.683869e-002 3.852774e-002 2.012838e-002 7.968889e-003 8.110970e-003 1.459622e-002 3.930535e-003 8.689792e-003 5.399843e-003 3.918010e-003 5.495783e-003 2.212972e-003 4.913912e-003 1.784481e-003 3.355503e-003 2.357295e-003 9.841506e-004 1.430396e-003 1.025426e-003 3.386638e-003 7.762618e-004 1.530279e-003 
1 6.913065e-003 1.137212e-001 1.631623e-001 4.656572e-002 3.135288e-002 1.289669e-002 1.641217e-002 2.731664e-003 7.513229e-003 1.511441e-002 8.688742e-003 4.580503e-003 6.182436e-003 2.745338e-003 5.957153e-003 8.088266e-003 4.639874e-003 4.806809e-003 9.971138e-004 2.254232e-003 1.978473e-003 3.720270e-003 1.631818e-003 2.842094e-003 9.340125e-004 
1 1.495916e-002 1.204691e-001 1.687039e-001 5.678901e-002 2.118961e-002 8.397777e-003 1.067643e-002 5.883646e-003 1.135121e-002 1.440673e-002 3.903214e-003 2.518790e-003 7.623477e-003 8.948095e-003 6.993345e-003 4.045213e-004 3.093958e-003 1.892437e-003 1.751208e-003 1.730177e-003 3.229991e-003 2.855638e-003 1.432713e-003 1.679131e-003 2.659734e-003 
1 1.292202e-002 1.258064e-001 1.658130e-001 5.467316e-002 2.326997e-002 1.405245e-002 9.111439e-003 9.846199e-003 1.711804e-002 5.560323e-003 7.253140e-003 2.067669e-003 4.573383e-003 7.214364e-003 4.008583e-003 7.597533e-003 1.759523e-003 7.627801e-004 5.516904e-003 4.824742e-003 2.772429e-003 1.364792e-003 1.910787e-003 2.006357e-003 4.976222e-003 
1 1.171428e-002 1.284755e-001 1.577510e-001 6.390908e-002 2.305719e-002 1.689514e-002 1.048401e-002 8.021999e-003 1.282090e-002 9.048649e-003 5.616617e-003 1.138415e-002 2.561722e-003 5.356682e-003 2.461384e-003 2.426438e-003 4.527955e-003 1.244592e-003 1.301765e-003 2.261011e-003 2.333993e-003 4.390614e-003 2.470763e-003 1.761654e-003 2.688821e-003 
1 1.939571e-002 1.405865e-001 1.554725e-001 7.396658e-002 1.520806e-002 7.045410e-003 1.670149e-002 3.485900e-003 1.480032e-003 1.209284e-002 5.063816e-003 4.713856e-003 3.591578e-003 7.055417e-003 2.222956e-003 4.572757e-003 4.529962e-003 1.944411e-003 9.800394e-004 5.626840e-003 3.881069e-003 2.400079e-003 3.069877e-003 2.775489e-003 1.730586e-003 
1 1.275090e-002 1.341768e-001 1.614261e-001 6.904384e-002 1.937986e-002 1.058807e-002 1.586031e-002 1.280682e-003 7.136038e-003 1.048398e-002 3.592581e-003 5.972520e-003 8.788079e-004 2.636629e-003 4.953417e-003 1.393536e-003 6.976586e-003 3.932847e-003 3.556309e-003 3.509008e-003 4.469406e-003 3.524809e-003 3.127599e-003 1.850826e-003 1.268275e-003 
1 7.642328e-003 1.221809e-001 1.698436e-001 6.014626e-002 2.040337e-002 1.120453e-002 9.333554e-003 3.700472e-003 4.101589e-003 1.572228e-002 2.262791e-003 1.093863e-002 1.968971e-003 5.255420e-003 3.011876e-003 2.038145e-003 4.401763e-003 3.255285e-003 1.618468e-003 6.808082e-003 3.504349e-003 2.558512e-003 1.559219e-004 4.897345e-004 3.126437e-003 
1 1.776803e-002 9.449756e-002 1.812452e-001 6.233885e-002 2.666988e-002 1.730983e-002 1.246047e-002 1.618472e-002 1.699441e-003 1.508785e-002 2.049364e-003 4.572066e-003 7.349373e-003 5.179989e-003 1.773504e-003 2.931494e-003 8.479899e-003 3.113523e-003 1.446049e-003 5.671189e-004 4.477527e-003 4.843934e-003 2.737550e-003 1.784375e-003 3.053872e-003 
1 1.185850e-002 9.918310e-002 1.872933e-001 4.689693e-002 3.153719e-002 6.670557e-003 6.896881e-003 1.036175e-002 7.242322e-003 1.286008e-002 5.515125e-003 9.606236e-003 6.042657e-003 5.316075e-003 6.542595e-003 5.507756e-003 3.224631e-003 2.402775e-003 3.481420e-003 5.165774e-004 4.391644e-003 2.353097e-003 3.720915e-003 1.846384e-003 1.297177e-003 
1 1.221340e-002 1.276732e-001 1.627858e-001 5.535211e-002 3.365119e-002 8.998107e-003 1.267270e-002 1.142466e-002 9.794158e-003 8.927138e-003 3.523755e-003 9.012494e-003 9.326362e-003 6.413846e-003 3.002392e-003 2.260621e-003 2.874387e-003 4.337321e-003 6.872077e-004 1.045175e-003 2.648284e-003 4.889434e-003 3.572606e-003 5.737307e-003 7.265912e-004 
1 3.768646e-002 1.291501e-001 1.528891e-001 4.328355e-002 3.261854e-002 2.219484e-002 7.558241e-003 1.358462e-003 1.449819e-002 5.499654e-003 2.426536e-003 6.959848e-003 4.780393e-003 2.880477e-003 8.557272e-003 4.713410e-003 3.035527e-003 1.734919e-003 2.116874e-003 4.510942e-003 1.604294e-003 1.665687e-003 3.243669e-003 4.040501e-003 6.968489e-004 
1 1.423066e-002 1.207241e-001 1.486503e-001 3.013066e-002 4.009453e-002 2.549029e-002 1.321231e-002 5.165257e-003 1.098888e-002 9.859629e-003 6.534993e-003 4.167182e-004 4.770619e-003 2.817959e-003 1.943066e-003 4.416857e-003 3.530831e-003 1.462945e-003 2.219376e-003 2.106866e-003 1.522450e-003 1.422739e-003 2.218111e-003 2.247112e-003 4.653310e-004 
1 4.470997e-002 1.568317e-001 1.198306e-001 4.228881e-002 3.179878e-002 3.142571e-002 9.868019e-003 1.093299e-002 7.916573e-003 1.536313e-003 8.839723e-003 1.137198e-002 7.725300e-003 6.483899e-003 4.768170e-003 1.099129e-003 2.588107e-003 9.456342e-004 1.108452e-003 2.555430e-003 1.995340e-003 5.233143e-003 1.775737e-003 2.384318e-003 1.117729e-003 
